{"learner":{"attributes":{"scikit_learn":"{\"_estimator_type\": \"classifier\"}"},"feature_names":[],"feature_types":[],"gradient_booster":{"model":{"gbtree_model_param":{"num_parallel_tree":"1","num_trees":"300"},"iteration_indptr":[0,1,2,3,4,5,6,7,8,9,10,11,12,13,14,15,16,17,18,19,20,21,22,23,24,25,26,27,28,29,30,31,32,33,34,35,36,37,38,39,40,41,42,43,44,45,46,47,48,49,50,51,52,53,54,55,56,57,58,59,60,61,62,63,64,65,66,67,68,69,70,71,72,73,74,75,76,77,78,79,80,81,82,83,84,85,86,87,88,89,90,91,92,93,94,95,96,97,98,99,100,101,102,103,104,105,106,107,108,109,110,111,112,113,114,115,116,117,118,119,120,121,122,123,124,125,126,127,128,129,130,131,132,133,134,135,136,137,138,139,140,141,142,143,144,145,146,147,148,149,150,151,152,153,154,155,156,157,158,159,160,161,162,163,164,165,166,167,168,169,170,171,172,173,174,175,176,177,178,179,180,181,182,183,184,185,186,187,188,189,190,191,192,193,194,195,196,197,198,199,200,201,202,203,204,205,206,207,208,209,210,211,212,213,214,215,216,217,218,219,220,221,222,223,224,225,226,227,228,229,230,231,232,233,234,235,236,237,238,239,240,241,242,243,244,245,246,247,248,249,250,251,252,253,254,255,256,257,258,259,260,261,262,263,264,265,266,267,268,269,270,271,272,273,274,275,276,277,278,279,280,281,282,283,284,285,286,287,288,289,290,291,292,293,294,295,296,297,298,299,300],"tree_info":[0,0,0,0,0,0,0,0,0,0,0,0,0,0,0,0,0,0,0,0,0,0,0,0,0,0,0,0,0,0,0,0,0,0,0,0,0,0,0,0,0,0,0,0,0,0,0,0,0,0,0,0,0,0,0,0,0,0,0,0,0,0,0,0,0,0,0,0,0,0,0,0,0,0,0,0,0,0,0,0,0,0,0,0,0,0,0,0,0,0,0,0,0,0,0,0,0,0,0,0,0,0,0,0,0,0,0,0,0,0,0,0,0,0,0,0,0,0,0,0,0,0,0,0,0,0,0,0,0,0,0,0,0,0,0,0,0,0,0,0,0,0,0,0,0,0,0,0,0,0,0,0,0,0,0,0,0,0,0,0,0,0,0,0,0,0,0,0,0,0,0,0,0,0,0,0,0,0,0,0,0,0,0,0,0,0,0,0,0,0,0,0,0,0,0,0,0,0,0,0,0,0,0,0,0,0,0,0,0,0,0,0,0,0,0,0,0,0,0,0,0,0,0,0,0,0,0,0,0,0,0,0,0,0,0,0,0,0,0,0,0,0,0,0,0,0,0,0,0,0,0,0,0,0,0,0,0,0,0,0,0,0,0,0,0,0,0,0,0,0,0,0,0,0,0,0,0,0,0,0,0,0,0,0,0,0,0,0,0,0,0,0,0,0,0,0,0,0,0,0],"trees":[{"base_weights":[-1.112293E-5,-1.5317938E0,1.1881044E0,-1.7357785E0,7.9509676E-1,1.6189392E0,4.3650332E-1,-3.5834658E-1,7.3501445E-2,-2.0841399E-1,3.3904675E-1,3.3780503E-1,-8.528159E-2,2.6702678E-1,-7.36001E-2],"categories":[],"categories_nodes":[],"categories_segments":[],"categories_sizes":[],"default_left":[0,0,0,0,0,0,0,0,0,0,0,0,0,0,0],"id":0,"left_children":[1,3,5,7,9,11,13,-1,-1,-1,-1,-1,-1,-1,-1],"loss_changes":[3.7784772E2,4.442688E1,3.7155334E1,1.0508514E1,1.498863E1,1.1321335E1,3.228097E1,0E0,0E0,0E0,0E0,0E0,0E0,0E0,0E0],"parents":[2147483647,0,0,1,1,2,2,3,3,4,4,5,5,6,6],"right_children":[2,4,6,8,10,12,14,-1,-1,-1,-1,-1,-1,-1,-1],"split_conditions":[1.4285715E-1,7.6415247E-1,4.9352473E-1,8.454224E-1,4.754888E-1,6.3210815E-1,3.8792926E-1,-3.5834658E-1,7.3501445E-2,-2.0841399E-1,3.3904675E-1,3.3780503E-1,-8.528159E-2,2.6702678E-1,-7.36001E-2],"split_indices":[1,435,722,555,170,108,293,0,0,0,0,0,0,0,0],"split_type":[0,0,0,0,0,0,0,0,0,0,0,0,0,0,0],"sum_hessian":[2.0561607E2,8.969158E1,1.159245E2,8.269614E1,6.995444E0,7.2952484E1,4.297201E1,8.069744E1,1.9986982E0,2.2485356E0,4.746908E0,7.070395E1,2.2485356E0,1.9986982E1,2.298503E1],"tree_param":{"num_deleted":"0","num_feature":"809","num_nodes":"15","size_leaf_vector":"1"}},{"base_weights":[-2.5315623E-5,-1.4345238E0,8.781876E-1,-1.5105095E0,1.5995386E-1,1.329516E0,1.8959944E-1,-3.1119737E-1,5.5955797E-2,-6.997363E-2,2.8277E-1,2.0094442E-1,-9.0137385E-2],"categories":[],"categories_nodes":[],"categories_segments":[],"categories_sizes":[],"default_left":[0,0,0,0,0,0,0,0,0,0,0,0,0],"id":1,"left_children":[1,3,5,7,-1,9,11,-1,-1,-1,-1,-1,-1],"loss_changes":[2.5518198E2,1.4266769E1,3.879435E1,6.520035E0,0E0,1.1220093E1,2.7023989E1,0E0,0E0,0E0,0E0,0E0,0E0],"parents":[2147483647,0,0,1,1,2,2,3,3,5,5,6,6],"right_children":[2,4,6,8,-1,10,12,-1,-1,-1,-1,-1,-1],"split_conditions":[1.2987013E-1,8.1537795E-1,4.9352473E-1,7.112698E-1,1.5995386E-1,3.9292875E-1,3.8792926E-1,-3.1119737E-1,5.5955797E-2,-6.997363E-2,2.8277E-1,2.0094442E-1,-9.0137385E-2],"split_indices":[1,736,722,683,0,791,293,0,0,0,0,0,0],"split_type":[0,0,0,0,0,0,0,0,0,0,0,0,0],"sum_hessian":[2.0055833E2,7.591808E1,1.2464026E2,7.3734406E1,2.1836767E0,7.4729034E1,4.991122E1,7.2035416E1,1.6989863E0,3.422692E0,7.130634E1,2.1707325E1,2.8203894E1],"tree_param":{"num_deleted":"0","num_feature":"809","num_nodes":"13","size_leaf_vector":"1"}},{"base_weights":[-3.2770663E-4,-1.0600108E0,8.888441E-1,-1.2700005E0,5.347572E-1,1.0894973E0,-2.3369135E-1,-2.7014136E-1,1.24910176E-1,-1.589245E-1,2.319917E-1,-1.06730245E-1,2.3952332E-1,-1.6344438E-1,2.2047172E-1],"categories":[],"categories_nodes":[],"categories_segments":[],"categories_sizes":[],"default_left":[0,0,0,0,0,0,0,0,0,0,0,0,0,0,0],"id":2,"left_children":[1,3,5,7,9,11,13,-1,-1,-1,-1,-1,-1,-1,-1],"loss_changes":[1.808952E2,3.001281E1,2.3767662E1,1.2723747E1,9.977279E0,1.6211937E1,1.3884462E1,0E0,0E0,0E0,0E0,0E0,0E0,0E0,0E0],"parents":[2147483647,0,0,1,1,2,2,3,3,4,4,5,5,6,6],"right_children":[2,4,6,8,10,12,14,-1,-1,-1,-1,-1,-1,-1,-1],"split_conditions":[1.01123594E-1,7.4872816E-1,5.64756E-1,7.936398E-1,5.353324E-1,2.4641696E-1,5.105342E-1,-2.7014136E-1,1.24910176E-1,-1.589245E-1,2.319917E-1,-1.06730245E-1,2.3952332E-1,-1.6344438E-1,2.2047172E-1],"split_indices":[0,435,660,736,511,61,576,0,0,0,0,0,0,0,0],"split_type":[0,0,0,0,0,0,0,0,0,0,0,0,0,0,0],"sum_hessian":[1.8998419E2,8.6593285E1,1.0339091E2,7.6697815E1,9.895469E0,8.77373E1,1.5653614E1,7.383938E1,2.8584392E0,3.078531E0,6.816938E0,5.2334805E0,8.2503815E1,1.1165376E1,4.488238E0],"tree_param":{"num_deleted":"0","num_feature":"809","num_nodes":"15","size_leaf_vector":"1"}},{"base_weights":[-1.320215E-3,-1.1333059E0,6.334391E-1,-1.2136095E0,5.9271747E-1,-5.1491004E-1,8.535141E-1,-2.5896075E-1,-2.8230366E-3,-3.7041202E-2,2.0668636E-1,-2.2984643E-1,1.0020205E-1,5.2202284E-2,2.2540176E-1],"categories":[],"categories_nodes":[],"categories_segments":[],"categories_sizes":[],"default_left":[0,0,0,0,0,0,0,0,0,0,0,0,0,0,0],"id":3,"left_children":[1,3,5,7,9,11,13,-1,-1,-1,-1,-1,-1,-1,-1],"loss_changes":[1.2903374E2,9.661987E0,2.9517841E1,6.0179443E0,1.4051143E0,1.2902336E1,1.541333E1,0E0,0E0,0E0,0E0,0E0,0E0,0E0,0E0],"parents":[2147483647,0,0,1,1,2,2,3,3,4,4,5,5,6,6],"right_children":[2,4,6,8,10,12,14,-1,-1,-1,-1,-1,-1,-1,-1],"split_conditions":[1.2987013E-1,7.7327234E-1,5.2848047E-1,7.096956E-1,4.8487774E-1,6.795331E-1,4.34497E-1,-2.5896075E-1,-2.8230366E-3,-3.7041202E-2,2.0668636E-1,-2.2984643E-1,1.0020205E-1,5.2202284E-2,2.2540176E-1],"split_indices":[1,435,435,240,76,444,238,0,0,0,0,0,0,0,0],"split_type":[0,0,0,0,0,0,0,0,0,0,0,0,0,0,0],"sum_hessian":[1.7757895E2,6.3518703E1,1.1406024E2,6.097854E1,2.540163E0,1.8128124E1,9.593211E1,5.7038143E1,3.9403944E0,1.1283046E0,1.4118584E0,1.1079231E1,7.0488925E0,3.0913994E1,6.501813E1],"tree_param":{"num_deleted":"0","num_feature":"809","num_nodes":"15","size_leaf_vector":"1"}},{"base_weights":[-3.1133464E-3,-8.625691E-1,6.6360277E-1,-1.0673813E0,4.676175E-1,9.016723E-1,-1.6080078E-1,1.9527751E-1,-2.2688673E-1,1.9733657E-1,-1.6575275E-1,2.0438302E-1,-1.5833405E-1,6.33245E-2,-2.2329305E-1],"categories":[],"categories_nodes":[],"categories_segments":[],"categories_sizes":[],"default_left":[0,0,0,0,0,0,0,0,0,0,0,0,0,0,0],"id":4,"left_children":[1,3,5,7,9,11,13,-1,-1,-1,-1,-1,-1,-1,-1],"loss_changes":[9.599904E1,2.0437912E1,1.8662312E1,9.840614E0,7.8566637E0,1.5745804E1,1.0386307E1,0E0,0E0,0E0,0E0,0E0,0E0,0E0,0E0],"parents":[2147483647,0,0,1,1,2,2,3,3,4,4,5,5,6,6],"right_children":[2,4,6,8,10,12,14,-1,-1,-1,-1,-1,-1,-1,-1],"split_conditions":[1.01123594E-1,7.4907583E-1,6.8873906E-1,3.071065E-1,4.817083E-1,7.666023E-1,5.9993964E-1,1.9527751E-1,-2.2688673E-1,1.9733657E-1,-1.6575275E-1,2.0438302E-1,-1.5833405E-1,6.33245E-2,-2.2329305E-1],"split_indices":[0,555,190,533,681,699,704,0,0,0,0,0,0,0,0],"split_type":[0,0,0,0,0,0,0,0,0,0,0,0,0,0,0],"sum_hessian":[1.6553485E2,7.218643E1,9.334842E1,6.2725933E1,9.460498E0,7.235901E1,2.098941E1,1.5617552E0,6.116418E1,6.926181E0,2.5343173E0,6.793175E1,4.4272633E0,1.4442852E1,6.5465574E0],"tree_param":{"num_deleted":"0","num_feature":"809","num_nodes":"15","size_leaf_vector":"1"}},{"base_weights":[-4.480934E-3,-7.37306E-1,6.0446084E-1,8.146658E-2,-1.006495E0,-8.156105E-1,7.4326944E-1,-1.9425617E-1,1.456724E-1,-2.1742384E-1,8.960669E-2,1.7732628E-1,-2.852576E-1,-2.0952006E-1,1.7174847E-1],"categories":[],"categories_nodes":[],"categories_segments":[],"categories_sizes":[],"default_left":[0,0,0,0,0,0,0,0,0,0,0,0,0,0,0],"id":5,"left_children":[1,3,5,7,9,11,13,-1,-1,-1,-1,-1,-1,-1,-1],"loss_changes":[6.944586E1,1.5647839E1,1.7361078E1,1.3237663E1,6.7287407E0,9.627994E0,1.7020199E1,0E0,0E0,0E0,0E0,0E0,0E0,0E0,0E0],"parents":[2147483647,0,0,1,1,2,2,3,3,4,4,5,5,6,6],"right_children":[2,4,6,8,10,12,14,-1,-1,-1,-1,-1,-1,-1,-1],"split_conditions":[1.5584415E-1,4.216247E-1,3.879531E-1,5.9228784E-1,7.115349E-1,4.5561633E-1,3.0270782E-1,-1.9425617E-1,1.456724E-1,-2.1742384E-1,8.960669E-2,1.7732628E-1,-2.852576E-1,-2.0952006E-1,1.7174847E-1],"split_indices":[1,91,133,508,549,642,680,0,0,0,0,0,0,0,0],"split_type":[0,0,0,0,0,0,0,0,0,0,0,0,0,0,0],"sum_hessian":[1.5362305E2,6.962396E1,8.3999084E1,1.7399265E1,5.22247E1,7.045439E0,7.695364E1,6.431421E0,1.0967844E1,4.9721256E1,2.5034425E0,1.7408895E0,5.304549E0,4.1723537E0,7.278129E1],"tree_param":{"num_deleted":"0","num_feature":"809","num_nodes":"15","size_leaf_vector":"1"}},{"base_weights":[-7.4648047E-3,-8.882021E-1,4.0512097E-1,-1.0161645E0,3.5246682E-1,-1.8964262E-1,7.2042316E-1,-2.2093213E-1,5.990819E-2,-1.5753935E-1,2.2615711E-1,1.9061415E-1,-1.1821016E-1,1.6382858E-1,-1.6970204E-1],"categories":[],"categories_nodes":[],"categories_segments":[],"categories_sizes":[],"default_left":[0,0,0,0,0,0,0,0,0,0,0,0,0,0,0],"id":6,"left_children":[1,3,5,7,9,11,13,-1,-1,-1,-1,-1,-1,-1,-1],"loss_changes":[5.2449356E1,7.6678696E0,1.857171E1,5.2206306E0,5.3697577E0,1.6548958E1,1.0678032E1,0E0,0E0,0E0,0E0,0E0,0E0,0E0,0E0],"parents":[2147483647,0,0,1,1,2,2,3,3,4,4,5,5,6,6],"right_children":[2,4,6,8,10,12,14,-1,-1,-1,-1,-1,-1,-1,-1],"split_conditions":[1.2987013E-1,7.096956E-1,4.4555062E-1,7.955857E-1,5.9570175E-1,1.5654269E-1,7.577404E-1,-2.2093213E-1,5.990819E-2,-1.5753935E-1,2.2615711E-1,1.9061415E-1,-1.1821016E-1,1.6382858E-1,-1.6970204E-1],"split_indices":[1,240,524,555,435,92,639,0,0,0,0,0,0,0,0],"split_type":[0,0,0,0,0,0,0,0,0,0,0,0,0,0,0],"sum_hessian":[1.4234738E2,4.5042797E1,9.730459E1,4.0995483E1,4.047315E0,3.3850307E1,6.3454277E1,3.8562145E1,2.4333363E0,1.6370875E0,2.4102278E0,8.442424E0,2.5407885E1,6.0147594E1,3.3066826E0],"tree_param":{"num_deleted":"0","num_feature":"809","num_nodes":"15","size_leaf_vector":"1"}},{"base_weights":[-8.046471E-3,3.2756898E-1,-8.755301E-1,7.215902E-1,-1.1465751E-1,-9.751062E-1,2.1835008E-1,1.771621E-1,-1.5592101E-1,6.466242E-2,-1.6424768E-1,-2.1838339E-1,6.3515596E-2],"categories":[],"categories_nodes":[],"categories_segments":[],"categories_sizes":[],"default_left":[0,0,0,0,0,0,0,0,0,0,0,0,0],"id":7,"left_children":[1,3,5,7,9,11,-1,-1,-1,-1,-1,-1,-1],"loss_changes":[3.9065357E1,1.694404E1,8.396549E0,1.3339769E1,1.4642232E1,5.805889E0,0E0,0E0,0E0,0E0,0E0,0E0,0E0],"parents":[2147483647,0,0,1,1,2,2,3,3,4,4,5,5],"right_children":[2,4,6,8,10,12,-1,-1,-1,-1,-1,-1,-1],"split_conditions":[2.8912187E-1,5.7772577E-1,7.5322586E-1,6.719039E-1,4.903861E-1,6.590289E-1,2.1835008E-1,1.771621E-1,-1.5592101E-1,6.466242E-2,-1.6424768E-1,-2.1838339E-1,6.3515596E-2],"split_indices":[92,699,340,419,500,133,0,0,0,0,0,0,0],"split_type":[0,0,0,0,0,0,0,0,0,0,0,0,0],"sum_hessian":[1.3219516E2,9.576689E1,3.6428276E1,5.0309605E1,4.545729E1,3.515329E1,1.2749841E0,4.5718273E1,4.591329E0,2.8397629E1,1.705966E1,3.238243E1,2.7708597E0],"tree_param":{"num_deleted":"0","num_feature":"809","num_nodes":"13","size_leaf_vector":"1"}},{"base_weights":[-8.4188515E-3,-6.30454E-1,3.8631725E-1,-8.470041E-1,5.146495E-1,-6.452682E-1,5.7477653E-1,-2.1969569E-1,-2.8409163E-2,1.8040447E-1,-2.2667845E-1,-2.2331126E-1,2.7137239E-2,1.3791305E-2,1.7404303E-1],"categories":[],"categories_nodes":[],"categories_segments":[],"categories_sizes":[],"default_left":[0,0,0,0,0,0,0,0,0,0,0,0,0,0,0],"id":8,"left_children":[1,3,5,7,9,11,13,-1,-1,-1,-1,-1,-1,-1,-1],"loss_changes":[3.0790068E1,1.2506535E1,1.5287768E1,7.168049E0,6.3616085E0,4.687134E0,9.714035E0,0E0,0E0,0E0,0E0,0E0,0E0,0E0,0E0],"parents":[2147483647,0,0,1,1,2,2,3,3,4,4,5,5,6,6],"right_children":[2,4,6,8,10,12,14,-1,-1,-1,-1,-1,-1,-1,-1],"split_conditions":[5.8518773E-1,5.4381657E-1,5.5555556E-2,6.2134033E-1,7.316154E-1,4.308723E-1,3.2418358E-1,-2.1969569E-1,-2.8409163E-2,1.8040447E-1,-2.2667845E-1,-2.2331126E-1,2.7137239E-2,1.3791305E-2,1.7404303E-1],"split_indices":[435,517,3,791,63,131,554,0,0,0,0,0,0,0,0],"split_type":[0,0,0,0,0,0,0,0,0,0,0,0,0,0,0],"sum_hessian":[1.2340557E2,4.767731E1,7.5728264E1,4.031389E1,7.3634205E0,1.1323261E1,6.4405E1,2.9302732E1,1.1011157E1,6.32856E0,1.0348604E0,6.793691E0,4.52957E0,2.420207E1,4.020293E1],"tree_param":{"num_deleted":"0","num_feature":"809","num_nodes":"15","size_leaf_vector":"1"}},{"base_weights":[-1.067866E-2,4.8736748E-1,-4.4609782E-1,6.6181326E-1,-6.7267495E-1,-6.7546237E-1,4.3135414E-1,-2.188982E-1,1.52351E-1,1.4618467E-1,-2.1857445E-1,-1.67688E-1,8.447744E-2,-1.539564E-1,1.5774548E-1],"categories":[],"categories_nodes":[],"categories_segments":[],"categories_sizes":[],"default_left":[0,0,0,0,0,0,0,0,0,0,0,0,0,0,0],"id":9,"left_children":[1,3,5,7,9,11,13,-1,-1,-1,-1,-1,-1,-1,-1],"loss_changes":[2.5609291E1,1.1594415E1,1.2969435E1,9.328737E0,5.338985E0,9.359444E0,6.4727287E0,0E0,0E0,0E0,0E0,0E0,0E0,0E0,0E0],"parents":[2147483647,0,0,1,1,2,2,3,3,4,4,5,5,6,6],"right_children":[2,4,6,8,10,12,14,-1,-1,-1,-1,-1,-1,-1,-1],"split_conditions":[4.9352473E-1,5.430217E-1,6.522396E-1,1.622459E-1,3.140813E-1,7.790781E-1,2.5425223E-1,-2.188982E-1,1.52351E-1,1.4618467E-1,-2.1857445E-1,-1.67688E-1,8.447744E-2,-1.539564E-1,1.5774548E-1],"split_indices":[722,702,706,461,91,654,376,0,0,0,0,0,0,0,0],"split_type":[0,0,0,0,0,0,0,0,0,0,0,0,0,0,0],"sum_hessian":[1.1608943E2,5.4094795E1,6.1994637E1,4.7396812E1,6.697983E0,4.9330044E1,1.2664594E1,2.0160975E0,4.5380714E1,1.372823E0,5.3251595E0,4.3159267E1,6.170777E0,2.6394315E0,1.0025163E1],"tree_param":{"num_deleted":"0","num_feature":"809","num_nodes":"15","size_leaf_vector":"1"}},{"base_weights":[-1.0729009E-2,-5.1393455E-1,3.716572E-1,-9.4919443E-1,-4.580494E-2,6.298405E-1,-3.7099403E-1,1.0376964E-1,-2.0816414E-1,1.0299367E-1,-1.2759998E-1,1.5196684E-1,-1.8182622E-1,-1.785593E-1,9.309895E-2],"categories":[],"categories_nodes":[],"categories_segments":[],"categories_sizes":[],"default_left":[0,0,0,0,0,0,0,0,0,0,0,0,0,0,0],"id":10,"left_children":[1,3,5,7,9,11,13,-1,-1,-1,-1,-1,-1,-1,-1],"loss_changes":[2.1446234E1,9.760584E0,1.2379852E1,3.887043E0,8.376167E0,1.0168728E1,7.823059E0,0E0,0E0,0E0,0E0,0E0,0E0,0E0,0E0],"parents":[2147483647,0,0,1,1,2,2,3,3,4,4,5,5,6,6],"right_children":[2,4,6,8,10,12,14,-1,-1,-1,-1,-1,-1,-1,-1],"split_conditions":[1.6233766E-1,5.2511656E-1,5.931735E-1,2.4995144E-1,3.9301607E-1,5.9068453E-1,5.208581E-1,1.0376964E-1,-2.0816414E-1,1.0299367E-1,-1.2759998E-1,1.5196684E-1,-1.8182622E-1,-1.785593E-1,9.309895E-2],"split_indices":[1,437,56,730,45,91,238,0,0,0,0,0,0,0,0],"split_type":[0,0,0,0,0,0,0,0,0,0,0,0,0,0,0],"sum_hessian":[1.09463326E2,4.71162E1,6.2347126E1,2.3882748E1,2.3233452E1,4.637628E1,1.5970848E1,1.1291287E0,2.2753618E1,1.2000296E1,1.1233156E1,4.3230927E1,3.1453543E0,9.794017E0,6.176831E0],"tree_param":{"num_deleted":"0","num_feature":"809","num_nodes":"15","size_leaf_vector":"1"}},{"base_weights":[-1.1953143E-2,2.673761E-1,-5.964073E-1,4.1672483E-1,-7.612855E-1,-7.2313386E-1,9.272212E-1,1.2128395E-1,-7.581668E-2,-2.4421418E-1,6.2159654E-2,-1.8570325E-1,2.3071105E-2,2.3423696E-1,4.461428E-2],"categories":[],"categories_nodes":[],"categories_segments":[],"categories_sizes":[],"default_left":[0,0,0,0,0,0,0,0,0,0,0,0,0,0,0],"id":11,"left_children":[1,3,5,7,9,11,13,-1,-1,-1,-1,-1,-1,-1,-1],"loss_changes":[1.7049896E1,1.1177905E1,7.1902695E0,9.646448E0,4.971807E0,5.572294E0,2.594297E-1,0E0,0E0,0E0,0E0,0E0,0E0,0E0,0E0],"parents":[2147483647,0,0,1,1,2,2,3,3,4,4,5,5,6,6],"right_children":[2,4,6,8,10,12,14,-1,-1,-1,-1,-1,-1,-1,-1],"split_conditions":[3.8644794E-1,6.714194E-1,7.724869E-1,6.555739E-1,7.1185464E-1,6.228117E-1,6.160567E-1,1.2128395E-1,-7.581668E-2,-2.4421418E-1,6.2159654E-2,-1.8570325E-1,2.3071105E-2,2.3423696E-1,4.461428E-2],"split_indices":[427,594,555,675,710,372,808,0,0,0,0,0,0,0,0],"split_type":[0,0,0,0,0,0,0,0,0,0,0,0,0,0,0],"sum_hessian":[1.0246034E2,6.9693924E1,3.2766422E1,6.1377556E1,8.316363E0,3.0735416E1,2.031007E0,4.975545E1,1.1622106E1,5.7229767E0,2.5933871E0,2.4601963E1,6.1334524E0,1.0158048E0,1.0152023E0],"tree_param":{"num_deleted":"0","num_feature":"809","num_nodes":"15","size_leaf_vector":"1"}},{"base_weights":[-1.13458745E-2,-6.421138E-1,2.073106E-1,-8.5268134E-1,2.5842717E-1,5.2872086E-1,-2.5274986E-1,-1.9177322E-1,6.8352886E-2,1.857522E-1,-1.4088903E-1,1.5998714E-1,-8.465373E-2,9.142726E-2,-1.3220547E-1],"categories":[],"categories_nodes":[],"categories_segments":[],"categories_sizes":[],"default_left":[0,0,0,0,0,0,0,0,0,0,0,0,0,0,0],"id":12,"left_children":[1,3,5,7,9,11,13,-1,-1,-1,-1,-1,-1,-1,-1],"loss_changes":[1.3705683E1,5.0701857E0,1.1051029E1,2.98631E0,4.2780175E0,1.1644661E1,9.299343E0,0E0,0E0,0E0,0E0,0E0,0E0,0E0,0E0],"parents":[2147483647,0,0,1,1,2,2,3,3,4,4,5,5,6,6],"right_children":[2,4,6,8,10,12,14,-1,-1,-1,-1,-1,-1,-1,-1],"split_conditions":[5.300339E-1,7.426383E-1,5.5050063E-1,7.773775E-1,4.899651E-1,6.03395E-1,4.1429624E-1,-1.9177322E-1,6.8352886E-2,1.857522E-1,-1.4088903E-1,1.5998714E-1,-8.465373E-2,9.142726E-2,-1.3220547E-1],"split_indices":[435,589,642,327,660,154,314,0,0,0,0,0,0,0,0],"split_type":[0,0,0,0,0,0,0,0,0,0,0,0,0,0,0],"sum_hessian":[9.740791E1,2.457595E1,7.283196E1,1.9961607E1,4.6143446E0,4.278912E1,3.0042841E1,1.8513048E1,1.4485588E0,2.7413173E0,1.8730274E0,3.3426014E1,9.363105E0,1.0925911E1,1.9116928E1],"tree_param":{"num_deleted":"0","num_feature":"809","num_nodes":"15","size_leaf_vector":"1"}},{"base_weights":[-9.869698E-3,-3.1565097E-1,4.1243652E-1,2.0653561E-1,-6.739141E-1,-3.0500102E-1,7.0111936E-1,1.1201012E-1,-1.5400808E-1,-1.7009017E-1,7.405361E-2,9.405985E-2,-1.8375337E-1,1.737422E-1,-1.1418301E-1],"categories":[],"categories_nodes":[],"categories_segments":[],"categories_sizes":[],"default_left":[0,0,0,0,0,0,0,0,0,0,0,0,0,0,0],"id":13,"left_children":[1,3,5,7,9,11,13,-1,-1,-1,-1,-1,-1,-1,-1],"loss_changes":[1.2245276E1,1.0425449E1,8.464207E0,8.419492E0,6.3693533E0,6.202604E0,6.6161337E0,0E0,0E0,0E0,0E0,0E0,0E0,0E0,0E0],"parents":[2147483647,0,0,1,1,2,2,3,3,4,4,5,5,6,6],"right_children":[2,4,6,8,10,12,14,-1,-1,-1,-1,-1,-1,-1,-1],"split_conditions":[2.012987E-1,3.8101986E-1,4.8856473E-1,7.29684E-1,6.4069533E-1,3.6917096E-1,5.4214436E-1,1.1201012E-1,-1.5400808E-1,-1.7009017E-1,7.405361E-2,9.405985E-2,-1.8375337E-1,1.737422E-1,-1.1418301E-1],"split_indices":[1,660,450,436,657,583,52,0,0,0,0,0,0,0,0],"split_type":[0,0,0,0,0,0,0,0,0,0,0,0,0,0,0],"sum_hessian":[9.2818474E1,5.3983173E1,3.88353E1,2.213858E1,3.1844591E1,1.1126667E1,2.7708633E1,1.6567688E1,5.5708933E0,2.7398024E1,4.446568E0,5.0196567E0,6.107011E0,2.4763138E1,2.9454954E0],"tree_param":{"num_deleted":"0","num_feature":"809","num_nodes":"15","size_leaf_vector":"1"}},{"base_weights":[-9.35871E-3,-2.8815836E-1,4.4099575E-1,-2.9571457E-2,-9.131975E-1,6.6381425E-1,-5.865382E-1,-1.3719143E-1,5.0164472E-2,-2.1021616E-1,8.968686E-2,1.6293123E-1,-1.0969459E-1,-2.162865E-1,7.943776E-2],"categories":[],"categories_nodes":[],"categories_segments":[],"categories_sizes":[],"default_left":[0,0,0,0,0,0,0,0,0,0,0,0,0,0,0],"id":14,"left_children":[1,3,5,7,9,11,13,-1,-1,-1,-1,-1,-1,-1,-1],"loss_changes":[1.1304734E1,8.957703E0,8.273188E0,7.599225E0,3.5192719E0,5.7072525E0,3.6754148E0,0E0,0E0,0E0,0E0,0E0,0E0,0E0,0E0],"parents":[2147483647,0,0,1,1,2,2,3,3,4,4,5,5,6,6],"right_children":[2,4,6,8,10,12,14,-1,-1,-1,-1,-1,-1,-1,-1],"split_conditions":[5.580843E-1,5.0121593E-1,5.415048E-1,5.606483E-1,7.8571546E-1,6.8325996E-1,5.622388E-1,-1.3719143E-1,5.0164472E-2,-2.1021616E-1,8.968686E-2,1.6293123E-1,-1.0969459E-1,-2.162865E-1,7.943776E-2],"split_indices":[377,368,52,67,544,419,125,0,0,0,0,0,0,0,0],"split_type":[0,0,0,0,0,0,0,0,0,0,0,0,0,0,0],"sum_hessian":[8.802339E1,5.4589176E1,3.343421E1,3.9354866E1,1.5234312E1,2.7766977E1,5.6672344E0,1.1346638E1,2.8008226E1,1.4040589E1,1.193723E0,2.4986029E1,2.7809489E0,3.7043335E0,1.9629009E0],"tree_param":{"num_deleted":"0","num_feature":"809","num_nodes":"15","size_leaf_vector":"1"}},{"base_weights":[-1.1765672E-2,-1.9045268E-1,6.176405E-1,1.9433607E-1,-5.646936E-1,1.048932E0,-1.17126964E-1,-2.428646E-1,6.325444E-2,-1.6738568E-1,9.239659E-2,2.3299165E-1,4.7025047E-4,9.338942E-2,-1.8228775E-1],"categories":[],"categories_nodes":[],"categories_segments":[],"categories_sizes":[],"default_left":[0,0,0,0,0,0,0,0,0,0,0,0,0,0,0],"id":15,"left_children":[1,3,5,7,9,11,13,-1,-1,-1,-1,-1,-1,-1,-1],"loss_changes":[9.676599E0,9.752818E0,6.153335E0,6.1830177E0,9.946389E0,1.4655523E0,4.108358E0,0E0,0E0,0E0,0E0,0E0,0E0,0E0,0E0],"parents":[2147483647,0,0,1,1,2,2,3,3,4,4,5,5,6,6],"right_children":[2,4,6,8,10,12,14,-1,-1,-1,-1,-1,-1,-1,-1],"split_conditions":[7.097022E-1,4.602849E-1,5.113752E-1,3.8862365E-1,6.543141E-1,5.9331584E-1,5.6819946E-1,-2.428646E-1,6.325444E-2,-1.6738568E-1,9.239659E-2,2.3299165E-1,4.7025047E-4,9.338942E-2,-1.8228775E-1],"split_indices":[555,314,192,302,89,333,492,0,0,0,0,0,0,0,0],"split_type":[0,0,0,0,0,0,0,0,0,0,0,0,0,0,0],"sum_hessian":[8.399375E1,6.59641E1,1.8029652E1,3.276074E1,3.3203365E1,1.1091581E1,6.9380703E0,1.8962102E0,3.0864527E1,2.6390457E1,6.812907E0,9.882838E0,1.2087427E0,4.235647E0,2.7024233E0],"tree_param":{"num_deleted":"0","num_feature":"809","num_nodes":"15","size_leaf_vector":"1"}},{"base_weights":[-1.0841071E-2,-8.41366E-1,1.1965693E-1,-1.1849469E0,8.313035E-2,4.455095E-1,-3.0880365E-1,-4.435739E-2,-2.6673996E-1,-1.3407388E-1,1.39467E-1,-8.843736E-2,1.255531E-1,-1.9184762E-1,-2.6388788E-3],"categories":[],"categories_nodes":[],"categories_segments":[],"categories_sizes":[],"default_left":[0,0,0,0,0,0,0,0,0,0,0,0,0,0,0],"id":16,"left_children":[1,3,5,7,9,11,13,-1,-1,-1,-1,-1,-1,-1,-1],"loss_changes":[8.87451E0,3.6297565E0,1.0027315E1,8.748226E-1,2.293971E0,6.8534822E0,5.984514E0,0E0,0E0,0E0,0E0,0E0,0E0,0E0,0E0],"parents":[2147483647,0,0,1,1,2,2,3,3,4,4,5,5,6,6],"right_children":[2,4,6,8,10,12,14,-1,-1,-1,-1,-1,-1,-1,-1],"split_conditions":[2.880475E-1,5.4541844E-1,4.3131495E-1,4.4755915E-1,4.301496E-1,4.5321137E-1,3.6092353E-1,-4.435739E-2,-2.6673996E-1,-1.3407388E-1,1.39467E-1,-8.843736E-2,1.255531E-1,-1.9184762E-1,-2.6388788E-3],"split_indices":[136,212,562,771,666,575,394,0,0,0,0,0,0,0,0],"split_type":[0,0,0,0,0,0,0,0,0,0,0,0,0,0,0],"sum_hessian":[7.995299E1,1.0117175E1,6.9835815E1,7.170573E0,2.9466016E0,3.9645134E1,3.0190681E1,1.2925324E0,5.878041E0,1.2821862E0,1.6644154E0,6.5102262E0,3.3134907E1,8.732172E0,2.145851E1],"tree_param":{"num_deleted":"0","num_feature":"809","num_nodes":"15","size_leaf_vector":"1"}},{"base_weights":[-1.5282367E-2,3.2011667E-1,-3.2899E-1,-8.205018E-2,7.7378756E-1,3.2407373E-1,-5.609976E-1,7.978583E-2,-1.2153466E-1,-3.8495776E-3,2.0385574E-1,1.7553298E-1,-8.580485E-2,-1.4973778E-1,7.806096E-2],"categories":[],"categories_nodes":[],"categories_segments":[],"categories_sizes":[],"default_left":[0,0,0,0,0,0,0,0,0,0,0,0,0,0,0],"id":17,"left_children":[1,3,5,7,9,11,13,-1,-1,-1,-1,-1,-1,-1,-1],"loss_changes":[8.290587E0,7.0156193E0,6.3469796E0,5.577468E0,3.5241747E0,5.0876417E0,5.7183704E0,0E0,0E0,0E0,0E0,0E0,0E0,0E0,0E0],"parents":[2147483647,0,0,1,1,2,2,3,3,4,4,5,5,6,6],"right_children":[2,4,6,8,10,12,14,-1,-1,-1,-1,-1,-1,-1,-1],"split_conditions":[5.1033235E-1,6.30967E-1,4.497495E-1,4.2241117E-1,3.9172503E-1,4.1612303E-1,6.140072E-1,7.978583E-2,-1.2153466E-1,-3.8495776E-3,2.0385574E-1,1.7553298E-1,-8.580485E-2,-1.4973778E-1,7.806096E-2],"split_indices":[56,277,388,562,136,755,489,0,0,0,0,0,0,0,0],"split_type":[0,0,0,0,0,0,0,0,0,0,0,0,0,0,0],"sum_hessian":[7.6794014E1,3.710401E1,3.9690002E1,2.0102676E1,1.7001333E1,1.0300091E1,2.9389914E1,1.0622988E1,9.479689E0,4.236694E0,1.2764639E1,5.84103E0,4.4590607E0,2.4724728E1,4.6651855E0],"tree_param":{"num_deleted":"0","num_feature":"809","num_nodes":"15","size_leaf_vector":"1"}},{"base_weights":[-8.483631E-3,1.6576774E-1,-5.4814225E-1,4.758357E-1,-1.9091547E-1,8.7527804E-2,-9.890341E-1,1.2890343E-1,-9.278156E-2,8.779064E-2,-1.0970085E-1,1.2288385E-1,-1.2861352E-1,-2.4896918E-4,-2.2768281E-1],"categories":[],"categories_nodes":[],"categories_segments":[],"categories_sizes":[],"default_left":[0,0,0,0,0,0,0,0,0,0,0,0,0,0,0],"id":18,"left_children":[1,3,5,7,9,11,13,-1,-1,-1,-1,-1,-1,-1,-1],"loss_changes":[7.1095524E0,6.415635E0,5.2573667E0,5.1939454E0,6.391602E0,3.657366E0,1.6180515E0,0E0,0E0,0E0,0E0,0E0,0E0,0E0,0E0],"parents":[2147483647,0,0,1,1,2,2,3,3,4,4,5,5,6,6],"right_children":[2,4,6,8,10,12,14,-1,-1,-1,-1,-1,-1,-1,-1],"split_conditions":[5.9809935E-1,4.6333188E-1,4.3729177E-1,6.783455E-1,4.0648767E-1,4.488591E-1,3.5266444E-1,1.2890343E-1,-9.278156E-2,8.779064E-2,-1.0970085E-1,1.2288385E-1,-1.2861352E-1,-2.4896918E-4,-2.2768281E-1],"split_indices":[722,192,703,180,258,500,70,0,0,0,0,0,0,0,0],"split_type":[0,0,0,0,0,0,0,0,0,0,0,0,0,0,0],"sum_hessian":[7.363811E1,5.618822E1,1.744989E1,2.9879576E1,2.6308645E1,7.474608E0,9.975282E0,2.5598812E1,4.2807636E0,9.444774E0,1.6863873E1,4.435108E0,3.0394995E0,1.442821E0,8.53246E0],"tree_param":{"num_deleted":"0","num_feature":"809","num_nodes":"15","size_leaf_vector":"1"}},{"base_weights":[-1.05403485E-2,-2.4033548E-1,3.73346E-1,1.2682773E-1,-5.909792E-1,5.718118E-1,-5.1229775E-1,-3.30712E-2,1.8460943E-1,-1.6213971E-1,2.3027712E-2,1.3965228E-1,-1.458876E-1,-1.7594008E-1,5.755387E-2],"categories":[],"categories_nodes":[],"categories_segments":[],"categories_sizes":[],"default_left":[0,0,0,0,0,0,0,0,0,0,0,0,0,0,0],"id":19,"left_children":[1,3,5,7,9,11,13,-1,-1,-1,-1,-1,-1,-1,-1],"loss_changes":[6.3812203E0,5.89702E0,5.0558786E0,5.483412E0,3.7095537E0,4.2295485E0,1.8663735E0,0E0,0E0,0E0,0E0,0E0,0E0,0E0,0E0],"parents":[2147483647,0,0,1,1,2,2,3,3,4,4,5,5,6,6],"right_children":[2,4,6,8,10,12,14,-1,-1,-1,-1,-1,-1,-1,-1],"split_conditions":[5.580843E-1,5.148348E-1,5.297473E-1,6.051603E-1,6.4928913E-1,6.282784E-1,1.8181819E-1,-3.30712E-2,1.8460943E-1,-1.6213971E-1,2.3027712E-2,1.3965228E-1,-1.458876E-1,-1.7594008E-1,5.755387E-2],"split_indices":[377,732,716,489,81,52,1,0,0,0,0,0,0,0,0],"split_type":[0,0,0,0,0,0,0,0,0,0,0,0,0,0,0],"sum_hessian":[7.03198E1,4.422223E1,2.6097572E1,2.1914059E1,2.230817E1,2.1609425E1,4.4881473E0,1.6610813E1,5.3032446E0,1.6901045E1,5.407126E0,2.0117855E1,1.4915705E0,3.0075178E0,1.4806296E0],"tree_param":{"num_deleted":"0","num_feature":"809","num_nodes":"15","size_leaf_vector":"1"}},{"base_weights":[-9.587653E-3,2.0538397E-1,-3.8737378E-1,-5.454419E-1,3.61763E-1,1.996419E-1,-7.28104E-1,-1.877298E-1,8.9198895E-2,-1.6146232E-1,1.0131278E-1,-5.382362E-2,1.7384134E-1,-1.7909859E-1,6.532111E-2],"categories":[],"categories_nodes":[],"categories_segments":[],"categories_sizes":[],"default_left":[0,0,0,0,0,0,0,0,0,0,0,0,0,0,0],"id":20,"left_children":[1,3,5,7,9,11,13,-1,-1,-1,-1,-1,-1,-1,-1],"loss_changes":[5.6641026E0,5.4197807E0,5.2026424E0,3.5630238E0,6.742407E0,3.3948622E0,3.154935E0,0E0,0E0,0E0,0E0,0E0,0E0,0E0,0E0],"parents":[2147483647,0,0,1,1,2,2,3,3,4,4,5,5,6,6],"right_children":[2,4,6,8,10,12,14,-1,-1,-1,-1,-1,-1,-1,-1],"split_conditions":[4.5342356E-1,4.0249982E-1,4.2349327E-1,6.614583E-1,4.1400042E-1,5.221971E-1,7.1506476E-1,-1.877298E-1,8.9198895E-2,-1.6146232E-1,1.0131278E-1,-5.382362E-2,1.7384134E-1,-1.7909859E-1,6.532111E-2],"split_indices":[407,133,351,597,617,567,747,0,0,0,0,0,0,0,0],"split_type":[0,0,0,0,0,0,0,0,0,0,0,0,0,0,0],"sum_hessian":[6.776389E1,4.3479244E1,2.4284647E1,7.065855E0,3.641339E1,9.07102E0,1.5213627E1,5.0974374E0,1.9684176E0,3.5088415E0,3.290455E1,5.687377E0,3.383643E0,1.3260121E1,1.9535054E0],"tree_param":{"num_deleted":"0","num_feature":"809","num_nodes":"15","size_leaf_vector":"1"}},{"base_weights":[-1.06797E-2,-2.596141E-1,3.0921698E-1,-4.919957E-1,5.106757E-1,4.676748E-1,-7.4948716E-1,2.4295527E-2,-1.513289E-1,-1.0920032E-1,1.6470908E-1,1.4986692E-1,-3.2017153E-2,-2.4323316E-1,7.1722396E-2],"categories":[],"categories_nodes":[],"categories_segments":[],"categories_sizes":[],"default_left":[0,0,0,0,0,0,0,0,0,0,0,0,0,0,0],"id":21,"left_children":[1,3,5,7,9,11,13,-1,-1,-1,-1,-1,-1,-1,-1],"loss_changes":[5.325225E0,6.9787884E0,5.262526E0,4.862322E0,3.4915924E0,4.7319813E0,2.6060383E0,0E0,0E0,0E0,0E0,0E0,0E0,0E0,0E0],"parents":[2147483647,0,0,1,1,2,2,3,3,4,4,5,5,6,6],"right_children":[2,4,6,8,10,12,14,-1,-1,-1,-1,-1,-1,-1,-1],"split_conditions":[2.012987E-1,6.264801E-1,7.235774E-1,3.3249018E-1,3.531814E-1,5.865161E-1,1.724138E-2,2.4295527E-2,-1.513289E-1,-1.0920032E-1,1.6470908E-1,1.4986692E-1,-3.2017153E-2,-2.4323316E-1,7.1722396E-2],"split_indices":[1,524,100,392,244,56,11,0,0,0,0,0,0,0,0],"split_type":[0,0,0,0,0,0,0,0,0,0,0,0,0,0,0],"sum_hessian":[6.486376E1,3.6583767E1,2.8279993E1,2.8382576E1,8.201192E0,2.5083906E1,3.1960878E0,8.716994E0,1.9665583E1,1.7033168E0,6.497875E0,1.7181396E1,7.9025087E0,2.1803174E0,1.0157704E0],"tree_param":{"num_deleted":"0","num_feature":"809","num_nodes":"15","size_leaf_vector":"1"}},{"base_weights":[-9.77781E-3,1.1598178E-1,-6.0359305E-1,6.0393E-1,-6.7051455E-2,-9.695417E-1,1.1259881E-1,1.6044307E-1,-1.0943865E-1,3.421307E-2,-1.3029006E-1,-2.3393431E-1,2.4385972E-2,1.2552308E-1,-1.02900706E-1],"categories":[],"categories_nodes":[],"categories_segments":[],"categories_sizes":[],"default_left":[0,0,0,0,0,0,0,0,0,0,0,0,0,0,0],"id":22,"left_children":[1,3,5,7,9,11,13,-1,-1,-1,-1,-1,-1,-1,-1],"loss_changes":[4.775569E0,4.7594743E0,3.0376625E0,3.751628E0,5.5836515E0,1.7806888E0,1.832641E0,0E0,0E0,0E0,0E0,0E0,0E0,0E0,0E0],"parents":[2147483647,0,0,1,1,2,2,3,3,4,4,5,5,6,6],"right_children":[2,4,6,8,10,12,14,-1,-1,-1,-1,-1,-1,-1,-1],"split_conditions":[5.4214436E-1,4.4310483E-1,5.3107405E-1,5.699736E-1,6.009495E-1,6.9800097E-1,6.030453E-1,1.6044307E-1,-1.0943865E-1,3.421307E-2,-1.3029006E-1,-2.3393431E-1,2.4385972E-2,1.2552308E-1,-1.02900706E-1],"split_indices":[52,172,89,716,642,555,502,0,0,0,0,0,0,0,0],"split_type":[0,0,0,0,0,0,0,0,0,0,0,0,0,0,0],"sum_hessian":[6.201141E1,5.183777E1,1.017364E1,1.3513246E1,3.8324524E1,6.49909E0,3.6745503E0,1.178614E1,1.7271053E0,2.7732166E1,1.0592357E1,5.4315305E0,1.0675596E0,2.0171332E0,1.6574169E0],"tree_param":{"num_deleted":"0","num_feature":"809","num_nodes":"15","size_leaf_vector":"1"}},{"base_weights":[-1.1789122E-2,5.766921E-1,-1.3515766E-1,-2.832511E-1,9.100996E-1,2.0854557E-2,-6.7833495E-1,-1.7158967E-1,8.815443E-2,1.9623972E-1,4.2318683E-2,1.18973136E-1,-3.4599375E-2,-1.7622839E-1,3.4620013E-2],"categories":[],"categories_nodes":[],"categories_segments":[],"categories_sizes":[],"default_left":[0,0,0,0,0,0,0,0,0,0,0,0,0,0,0],"id":23,"left_children":[1,3,5,7,9,11,13,-1,-1,-1,-1,-1,-1,-1,-1],"loss_changes":[4.473002E0,3.3202999E0,4.323835E0,1.9372334E0,1.8644094E-1,4.607106E0,2.1171708E0,0E0,0E0,0E0,0E0,0E0,0E0,0E0,0E0],"parents":[2147483647,0,0,1,1,2,2,3,3,4,4,5,5,6,6],"right_children":[2,4,6,8,10,12,14,-1,-1,-1,-1,-1,-1,-1,-1],"split_conditions":[1.4688228E-1,4.5271984E-1,5.026858E-1,3.0452868E-1,5.4782265E-1,3.504772E-1,6.5458E-1,-1.7158967E-1,8.815443E-2,1.9623972E-1,4.2318683E-2,1.18973136E-1,-3.4599375E-2,-1.7622839E-1,3.4620013E-2],"split_indices":[92,613,368,554,374,793,51,0,0,0,0,0,0,0,0],"split_type":[0,0,0,0,0,0,0,0,0,0,0,0,0,0,0],"sum_hessian":[5.953792E1,9.681514E0,4.985641E1,2.7469254E0,6.934588E0,3.947884E1,1.0377568E1,1.4282618E0,1.3186637E0,5.9266233E0,1.0079645E0,9.444419E0,3.0034422E1,8.353032E0,2.0245357E0],"tree_param":{"num_deleted":"0","num_feature":"809","num_nodes":"15","size_leaf_vector":"1"}},{"base_weights":[-7.2287982E-3,-6.797354E-1,9.5155954E-2,-9.710878E-1,2.3540903E-2,-2.8118402E-1,3.2718804E-1,-3.719392E-2,-2.1898158E-1,-1.0599204E-1,8.047672E-2,1.1811743E-1,-2.6757622E-2],"categories":[],"categories_nodes":[],"categories_segments":[],"categories_sizes":[],"default_left":[0,0,0,0,0,0,0,0,0,0,0,0,0],"id":24,"left_children":[1,3,5,7,-1,9,11,-1,-1,-1,-1,-1,-1],"loss_changes":[4.0866265E0,1.9359775E0,4.595385E0,3.6514616E-1,0E0,3.6495788E0,4.008731E0,0E0,0E0,0E0,0E0,0E0,0E0],"parents":[2147483647,0,0,1,1,2,2,3,3,5,5,6,6],"right_children":[2,4,6,8,-1,10,12,-1,-1,-1,-1,-1,-1],"split_conditions":[2.880475E-1,5.4541844E-1,5.153682E-1,4.7248912E-1,2.3540903E-2,6.133324E-1,5.517422E-1,-3.719392E-2,-2.1898158E-1,-1.0599204E-1,8.047672E-2,1.1811743E-1,-2.6757622E-2],"split_indices":[136,212,555,771,0,422,722,0,0,0,0,0,0],"split_type":[0,0,0,0,0,0,0,0,0,0,0,0,0],"sum_hessian":[5.7412304E1,6.840693E0,5.057161E1,4.8506894E0,1.9900032E0,1.9207134E1,3.1364475E1,1.0016109E0,3.849079E0,1.4246872E1,4.9602633E0,1.9780722E1,1.1583755E1],"tree_param":{"num_deleted":"0","num_feature":"809","num_nodes":"13","size_leaf_vector":"1"}},{"base_weights":[-8.736391E-3,-3.0695027E-1,2.114677E-1,-6.1177146E-1,1.6861004E-1,4.9219987E-1,-2.246448E-1,1.5236609E-2,-1.7409496E-1,8.779555E-2,-1.5425381E-1,1.3685544E-1,-1.333847E-1,1.3647954E-1,-1.0559573E-1],"categories":[],"categories_nodes":[],"categories_segments":[],"categories_sizes":[],"default_left":[0,0,0,0,0,0,0,0,0,0,0,0,0,0,0],"id":25,"left_children":[1,3,5,7,9,11,13,-1,-1,-1,-1,-1,-1,-1,-1],"loss_changes":[3.7714257E0,3.6377127E0,4.158188E0,2.749278E0,2.9579706E0,5.0041733E0,4.111456E0,0E0,0E0,0E0,0E0,0E0,0E0,0E0,0E0],"parents":[2147483647,0,0,1,1,2,2,3,3,4,4,5,5,6,6],"right_children":[2,4,6,8,10,12,14,-1,-1,-1,-1,-1,-1,-1,-1],"split_conditions":[4.860349E-1,5.102709E-1,4.855841E-1,3.4601632E-1,6.9269866E-1,6.2892836E-1,4.5807028E-1,1.5236609E-2,-1.7409496E-1,8.779555E-2,-1.5425381E-1,1.3685544E-1,-1.333847E-1,1.3647954E-1,-1.0559573E-1],"split_indices":[375,238,495,685,502,192,504,0,0,0,0,0,0,0,0],"split_type":[0,0,0,0,0,0,0,0,0,0,0,0,0,0,0],"sum_hessian":[5.5443325E1,2.3382872E1,3.206045E1,1.4074853E1,9.308018E0,1.9426632E1,1.26338215E1,4.039191E0,1.0035663E1,7.642502E0,1.6655165E0,1.70165E1,2.41013E0,2.8529985E0,9.780824E0],"tree_param":{"num_deleted":"0","num_feature":"809","num_nodes":"15","size_leaf_vector":"1"}},{"base_weights":[-1.04608275E-2,1.6136156E-1,-3.56349E-1,-2.646581E-1,4.106691E-1,3.2879838E-1,-5.960594E-1,4.0102568E-2,-1.5713273E-1,-8.951943E-2,1.1905449E-1,1.588312E-1,-5.255112E-2,-1.537044E-1,8.912256E-2],"categories":[],"categories_nodes":[],"categories_segments":[],"categories_sizes":[],"default_left":[0,0,0,0,0,0,0,0,0,0,0,0,0,0,0],"id":26,"left_children":[1,3,5,7,9,11,13,-1,-1,-1,-1,-1,-1,-1,-1],"loss_changes":[3.2787561E0,4.027918E0,3.201601E0,3.6064181E0,4.0167203E0,1.6918241E0,2.841885E0,0E0,0E0,0E0,0E0,0E0,0E0,0E0,0E0],"parents":[2147483647,0,0,1,1,2,2,3,3,4,4,5,5,6,6],"right_children":[2,4,6,8,10,12,14,-1,-1,-1,-1,-1,-1,-1,-1],"split_conditions":[5.8857334E-1,5.0710505E-1,4.497495E-1,5.857712E-1,4.429892E-1,4.1612303E-1,7.178505E-1,4.0102568E-2,-1.5713273E-1,-8.951943E-2,1.1905449E-1,1.588312E-1,-5.255112E-2,-1.537044E-1,8.912256E-2],"split_indices":[56,133,388,303,617,755,384,0,0,0,0,0,0,0,0],"split_type":[0,0,0,0,0,0,0,0,0,0,0,0,0,0,0],"sum_hessian":[5.32013E1,3.5900806E1,1.7300493E1,1.3230611E1,2.2670197E1,4.387724E0,1.2912769E1,7.3148303E0,5.91578E0,3.7607777E0,1.890942E1,2.264119E0,2.1236048E0,1.1303541E1,1.6092279E0],"tree_param":{"num_deleted":"0","num_feature":"809","num_nodes":"15","size_leaf_vector":"1"}},{"base_weights":[-8.9290375E-3,-3.386885E-1,1.7216402E-1,-5.341587E-1,4.017792E-1,-3.8194876E-2,6.5310544E-1,-1.6511844E-1,3.0915004E-3,1.5039282E-1,-7.518116E-2,-8.157773E-2,8.180934E-2,1.8086506E-1,-8.131989E-2],"categories":[],"categories_nodes":[],"categories_segments":[],"categories_sizes":[],"default_left":[0,0,0,0,0,0,0,0,0,0,0,0,0,0,0],"id":27,"left_children":[1,3,5,7,9,11,13,-1,-1,-1,-1,-1,-1,-1,-1],"loss_changes":[3.1853032E0,2.9501033E0,3.5116773E0,2.4765263E0,1.5130308E0,4.287432E0,3.1742988E0,0E0,0E0,0E0,0E0,0E0,0E0,0E0,0E0],"parents":[2147483647,0,0,1,1,2,2,3,3,4,4,5,5,6,6],"right_children":[2,4,6,8,10,12,14,-1,-1,-1,-1,-1,-1,-1,-1],"split_conditions":[1.0486891E-1,7.5852406E-1,5.3720033E-1,4.5363966E-1,6.213777E-1,5.8877E-1,5.9068453E-1,-1.6511844E-1,3.0915004E-3,1.5039282E-1,-7.518116E-2,-8.157773E-2,8.180934E-2,1.8086506E-1,-8.131989E-2],"split_indices":[0,555,48,470,675,792,91,0,0,0,0,0,0,0,0],"split_type":[0,0,0,0,0,0,0,0,0,0,0,0,0,0,0],"sum_hessian":[5.1363396E1,1.789941E1,3.3463985E1,1.43815565E1,3.517854E0,2.3921532E1,9.542453E0,9.070048E0,5.3115087E0,2.4484236E0,1.0694304E0,1.3144317E1,1.0777215E1,7.832306E0,1.7101473E0],"tree_param":{"num_deleted":"0","num_feature":"809","num_nodes":"15","size_leaf_vector":"1"}},{"base_weights":[-6.4859423E-3,9.938176E-2,-5.315725E-1,-1.4442575E-1,4.1570768E-1,-8.339718E-1,1.8439509E-1,9.6212E-2,-7.773948E-2,-1.1224934E-1,1.273159E-1,-2.0124112E-1,-1.9747345E-2,-4.71762E-2,9.255647E-2],"categories":[],"categories_nodes":[],"categories_segments":[],"categories_sizes":[],"default_left":[0,0,0,0,0,0,0,0,0,0,0,0,0,0,0],"id":28,"left_children":[1,3,5,7,9,11,13,-1,-1,-1,-1,-1,-1,-1,-1],"loss_changes":[2.8387463E0,3.341553E0,2.008479E0,3.9717336E0,4.409256E0,6.862426E-1,5.025945E-1,0E0,0E0,0E0,0E0,0E0,0E0,0E0,0E0],"parents":[2147483647,0,0,1,1,2,2,3,3,4,4,5,5,6,6],"right_children":[2,4,6,8,10,12,14,-1,-1,-1,-1,-1,-1,-1,-1],"split_conditions":[5.4214436E-1,1.9480519E-1,5.97585E-1,2.9506272E-1,4.01969E-1,6.3974017E-1,5.604004E-1,9.6212E-2,-7.773948E-2,-1.1224934E-1,1.273159E-1,-2.0124112E-1,-1.9747345E-2,-4.71762E-2,9.255647E-2],"split_indices":[52,1,129,392,450,326,483,0,0,0,0,0,0,0,0],"split_type":[0,0,0,0,0,0,0,0,0,0,0,0,0,0,0],"sum_hessian":[4.911572E1,4.15493E1,7.566417E0,2.377116E1,1.7778141E1,5.203729E0,2.3626883E0,6.4038916E0,1.7367268E1,2.994019E0,1.47841215E1,3.917483E0,1.2862461E0,1.0022689E0,1.3604193E0],"tree_param":{"num_deleted":"0","num_feature":"809","num_nodes":"15","size_leaf_vector":"1"}},{"base_weights":[-7.845382E-3,5.319125E-1,-1.1040507E-1,-1.8151069E-1,1.6421583E-1,-1.8856442E-1,1.44348E-1,-1.2462725E-1,7.356328E-2,1.1110391E-3,-1.326554E-1],"categories":[],"categories_nodes":[],"categories_segments":[],"categories_sizes":[],"default_left":[0,0,0,0,0,0,0,0,0,0,0],"id":29,"left_children":[1,3,5,7,-1,9,-1,-1,-1,-1,-1],"loss_changes":[2.726732E0,1.7720664E0,2.824103E0,9.7835666E-1,0E0,3.5582218E0,0E0,0E0,0E0,0E0,0E0],"parents":[2147483647,0,0,1,1,2,2,3,3,5,5],"right_children":[2,4,6,8,-1,10,-1,-1,-1,-1,-1],"split_conditions":[1.4688228E-1,4.5271984E-1,7.855802E-1,3.0452868E-1,1.6421583E-1,6.5582716E-1,1.44348E-1,-1.2462725E-1,7.356328E-2,1.1110391E-3,-1.326554E-1],"split_indices":[92,613,327,554,0,308,0,0,0,0,0],"split_type":[0,0,0,0,0,0,0,0,0,0,0],"sum_hessian":[4.7196014E1,6.8674064E0,4.0328606E1,2.0880733E0,4.7793336E0,3.757296E1,2.7556465E0,1.0830245E0,1.0050486E0,2.7369368E1,1.0203593E1],"tree_param":{"num_deleted":"0","num_feature":"809","num_nodes":"11","size_leaf_vector":"1"}},{"base_weights":[-2.8828888E-3,-4.6976605E-1,1.15514815E-1,-8.092308E-1,1.1108154E-1,-5.645982E-2,6.2262905E-1,-1.8174136E-1,-3.356517E-2,-1.1508556E-1,1.0153826E-1,8.786643E-2,-5.7037484E-2,-3.1573124E-2,1.5582727E-1],"categories":[],"categories_nodes":[],"categories_segments":[],"categories_sizes":[],"default_left":[0,0,0,0,0,0,0,0,0,0,0,0,0,0,0],"id":30,"left_children":[1,3,5,7,9,11,13,-1,-1,-1,-1,-1,-1,-1,-1],"loss_changes":[2.6489065E0,2.0010476E0,3.3705785E0,2.4551344E-1,1.5049914E0,3.4680214E0,1.3162599E0,0E0,0E0,0E0,0E0,0E0,0E0,0E0,0E0],"parents":[2147483647,0,0,1,1,2,2,3,3,4,4,5,5,6,6],"right_children":[2,4,6,8,10,12,14,-1,-1,-1,-1,-1,-1,-1,-1],"split_conditions":[5.2375233E-1,5.056192E-1,5.3720033E-1,7.30424E-1,1.0486891E-1,4.897142E-1,3.7357026E-1,-1.8174136E-1,-3.356517E-2,-1.1508556E-1,1.0153826E-1,8.786643E-2,-5.7037484E-2,-3.1573124E-2,1.5582727E-1],"split_indices":[435,204,48,464,0,365,138,0,0,0,0,0,0,0,0],"split_type":[0,0,0,0,0,0,0,0,0,0,0,0,0,0,0],"sum_hessian":[4.593814E1,8.692582E0,3.724556E1,5.238094E0,3.4544888E0,2.847699E1,8.768568E0,4.1740007E0,1.0640931E0,1.0998477E0,2.354641E0,8.699378E0,1.9777613E1,1.4631631E0,7.3054047E0],"tree_param":{"num_deleted":"0","num_feature":"809","num_nodes":"15","size_leaf_vector":"1"}},{"base_weights":[-3.8218636E-3,1.8936728E-1,-2.9319206E-1,3.3391824E-1,-6.005701E-1,-5.0056714E-1,2.7842328E-1,-2.7794003E-2,1.4300837E-1,-1.8154316E-1,2.68378E-2,-1.2632045E-1,8.071751E-2,1.4698817E-1,-7.6037936E-2],"categories":[],"categories_nodes":[],"categories_segments":[],"categories_sizes":[],"default_left":[0,0,0,0,0,0,0,0,0,0,0,0,0,0,0],"id":31,"left_children":[1,3,5,7,9,11,13,-1,-1,-1,-1,-1,-1,-1,-1],"loss_changes":[2.5905554E0,3.3749354E0,2.3378742E0,4.4505587E0,1.17292E0,1.9096384E0,1.957118E0,0E0,0E0,0E0,0E0,0E0,0E0,0E0,0E0],"parents":[2147483647,0,0,1,1,2,2,3,3,4,4,5,5,6,6],"right_children":[2,4,6,8,10,12,14,-1,-1,-1,-1,-1,-1,-1,-1],"split_conditions":[4.1067207E-1,7.1753085E-1,7.161941E-1,5.083149E-1,5.107031E-1,7.638053E-1,4.4202244E-1,-2.7794003E-2,1.4300837E-1,-1.8154316E-1,2.68378E-2,-1.2632045E-1,8.071751E-2,1.4698817E-1,-7.6037936E-2],"split_indices":[273,316,327,133,85,577,52,0,0,0,0,0,0,0,0],"split_type":[0,0,0,0,0,0,0,0,0,0,0,0,0,0,0],"sum_hessian":[4.4346874E1,2.6800158E1,1.7546715E1,2.3142574E1,3.657584E0,1.2966809E1,4.5799065E0,1.06114855E1,1.2531088E1,2.413355E0,1.2442287E0,1.1588748E1,1.3780608E0,2.6365147E0,1.9433917E0],"tree_param":{"num_deleted":"0","num_feature":"809","num_nodes":"15","size_leaf_vector":"1"}},{"base_weights":[-2.5777353E-3,2.354024E-1,-2.205853E-1,5.8063483E-1,-1.5434687E-1,-6.261151E-1,7.303978E-2,1.461113E-1,-8.493488E-2,-9.353653E-2,8.576715E-2,-1.5851752E-1,2.6028145E-2,9.48648E-2,-1.274956E-1],"categories":[],"categories_nodes":[],"categories_segments":[],"categories_sizes":[],"default_left":[0,0,0,0,0,0,0,0,0,0,0,0,0,0,0],"id":32,"left_children":[1,3,5,7,9,11,13,-1,-1,-1,-1,-1,-1,-1,-1],"loss_changes":[2.311183E0,2.9560685E0,2.8133836E0,2.044529E0,2.1734257E0,1.3452284E0,4.401604E0,0E0,0E0,0E0,0E0,0E0,0E0,0E0,0E0],"parents":[2147483647,0,0,1,1,2,2,3,3,4,4,5,5,6,6],"right_children":[2,4,6,8,10,12,14,-1,-1,-1,-1,-1,-1,-1,-1],"split_conditions":[4.66808E-1,5.1572037E-1,5.171914E-1,5.581555E-1,5.94671E-1,6.264801E-1,6.3569593E-1,1.461113E-1,-8.493488E-2,-9.353653E-2,8.576715E-2,-1.5851752E-1,2.6028145E-2,9.48648E-2,-1.274956E-1],"split_indices":[432,799,85,431,555,524,699,0,0,0,0,0,0,0,0],"split_type":[0,0,0,0,0,0,0,0,0,0,0,0,0,0,0],"sum_hessian":[4.254651E1,2.0303324E1,2.2243185E1,1.0506819E1,9.796504E0,8.865942E0,1.3377242E1,9.381116E0,1.1257029E0,6.501429E0,3.295075E0,7.2270336E0,1.638909E0,8.761418E0,4.615824E0],"tree_param":{"num_deleted":"0","num_feature":"809","num_nodes":"15","size_leaf_vector":"1"}},{"base_weights":[-4.3611955E-3,2.7994478E-1,-1.7537229E-1,5.1796985E-1,-4.085896E-1,-3.7972313E-1,2.5146884E-1,-9.408123E-2,1.295809E-1,-1.4354247E-1,3.8450412E-2,8.619265E-2,-1.0397031E-1,1.0350195E-1,-9.83972E-2],"categories":[],"categories_nodes":[],"categories_segments":[],"categories_sizes":[],"default_left":[0,0,0,0,0,0,0,0,0,0,0,0,0,0,0],"id":33,"left_children":[1,3,5,7,9,11,13,-1,-1,-1,-1,-1,-1,-1,-1],"loss_changes":[2.0739348E0,2.838296E0,2.41739E0,1.890929E0,1.0065196E0,2.3142576E0,2.0781841E0,0E0,0E0,0E0,0E0,0E0,0E0,0E0,0E0],"parents":[2147483647,0,0,1,1,2,2,3,3,4,4,5,5,6,6],"right_children":[2,4,6,8,10,12,14,-1,-1,-1,-1,-1,-1,-1,-1],"split_conditions":[4.2041135E-1,3.7998453E-1,6.105002E-1,1.6818166E-1,3.8619202E-1,3.3274066E-1,5.987953E-1,-9.408123E-2,1.295809E-1,-1.4354247E-1,3.8450412E-2,8.619265E-2,-1.0397031E-1,1.0350195E-1,-9.83972E-2],"split_indices":[769,427,239,304,130,537,449,0,0,0,0,0,0,0,0],"split_type":[0,0,0,0,0,0,0,0,0,0,0,0,0,0,0],"sum_hessian":[4.0646687E1,1.5027113E1,2.5619576E1,1.1350862E1,3.676251E0,1.7399788E1,8.219788E0,1.0143863E0,1.0336475E1,2.2989626E0,1.3772885E0,2.2584531E0,1.5141335E1,6.277377E0,1.9424102E0],"tree_param":{"num_deleted":"0","num_feature":"809","num_nodes":"15","size_leaf_vector":"1"}},{"base_weights":[-4.9576284E-3,1.315804E-1,-3.559263E-1,2.6259753E-1,-4.4184637E-1,-6.943684E-1,1.5871237E-1,-4.901843E-2,8.8194884E-2,-1.370242E-1,5.2426457E-2,4.7253687E-3,-1.6819493E-1,-8.311304E-2,9.6285045E-2],"categories":[],"categories_nodes":[],"categories_segments":[],"categories_sizes":[],"default_left":[0,0,0,0,0,0,0,0,0,0,0,0,0,0,0],"id":34,"left_children":[1,3,5,7,9,11,13,-1,-1,-1,-1,-1,-1,-1,-1],"loss_changes":[1.9692248E0,2.3406491E0,2.114166E0,2.3477044E0,1.1865991E0,7.7006865E-1,1.1968417E0,0E0,0E0,0E0,0E0,0E0,0E0,0E0,0E0],"parents":[2147483647,0,0,1,1,2,2,3,3,4,4,5,5,6,6],"right_children":[2,4,6,8,10,12,14,-1,-1,-1,-1,-1,-1,-1,-1],"split_conditions":[4.460153E-1,6.737921E-1,5.6629986E-1,4.1726625E-1,4.5442146E-1,4.0393972E-1,4.4890437E-1,-4.901843E-2,8.8194884E-2,-1.370242E-1,5.2426457E-2,4.7253687E-3,-1.6819493E-1,-8.311304E-2,9.6285045E-2],"split_indices":[318,498,459,752,470,502,662,0,0,0,0,0,0,0,0],"split_type":[0,0,0,0,0,0,0,0,0,0,0,0,0,0,0],"sum_hessian":[3.911622E1,2.8610798E1,1.0505421E1,2.3730814E1,4.879985E0,6.1269293E0,4.378491E0,6.072754E0,1.765806E1,3.6466095E0,1.2333751E0,1.1811519E0,4.9457774E0,1.4717472E0,2.9067438E0],"tree_param":{"num_deleted":"0","num_feature":"809","num_nodes":"15","size_leaf_vector":"1"}},{"base_weights":[-9.7730765E-3,1.7046504E-1,-2.6562738E-1,3.808287E-1,-3.1255156E-1,2.4410644E-1,-4.747319E-1,-2.625133E-2,1.3478479E-1,4.336557E-2,-1.2657735E-1,1.2565266E-1,-8.501154E-2,-1.4687018E-1,2.5328125E-3],"categories":[],"categories_nodes":[],"categories_segments":[],"categories_sizes":[],"default_left":[0,0,0,0,0,0,0,0,0,0,0,0,0,0,0],"id":35,"left_children":[1,3,5,7,9,11,13,-1,-1,-1,-1,-1,-1,-1,-1],"loss_changes":[1.8311862E0,2.4896126E0,1.8636088E0,2.5954056E0,1.4306762E0,1.6629548E0,1.5235536E0,0E0,0E0,0E0,0E0,0E0,0E0,0E0,0E0],"parents":[2147483647,0,0,1,1,2,2,3,3,4,4,5,5,6,6],"right_children":[2,4,6,8,10,12,14,-1,-1,-1,-1,-1,-1,-1,-1],"split_conditions":[5.260478E-1,6.2994015E-1,5.1307577E-1,4.2409396E-1,3.9847633E-1,5.4989386E-1,6.13996E-1,-2.625133E-2,1.3478479E-1,4.336557E-2,-1.2657735E-1,1.2565266E-1,-8.501154E-2,-1.4687018E-1,2.5328125E-3],"split_indices":[679,675,371,81,339,614,319,0,0,0,0,0,0,0,0],"split_type":[0,0,0,0,0,0,0,0,0,0,0,0,0,0,0],"sum_hessian":[3.7727478E1,2.233042E1,1.5397057E1,1.5703001E1,6.6274185E0,4.4301925E0,1.0966865E1,5.9170732E0,9.785928E0,2.6202943E0,4.007124E0,2.853287E0,1.5769055E0,6.824831E0,4.142034E0],"tree_param":{"num_deleted":"0","num_feature":"809","num_nodes":"15","size_leaf_vector":"1"}},{"base_weights":[-9.807364E-3,2.1762855E-1,-2.2028488E-1,-2.8580803E-1,4.4024983E-1,-3.646228E-1,4.3205252E-1,7.4649E-2,-1.1661221E-1,-9.316086E-2,1.18674375E-1,-9.696535E-2,8.218294E-2,1.3638365E-1,-3.165856E-2],"categories":[],"categories_nodes":[],"categories_segments":[],"categories_sizes":[],"default_left":[0,0,0,0,0,0,0,0,0,0,0,0,0,0,0],"id":36,"left_children":[1,3,5,7,9,11,13,-1,-1,-1,-1,-1,-1,-1,-1],"loss_changes":[1.8291144E0,2.1865406E0,2.0238838E0,1.440869E0,2.0997791E0,1.762825E0,7.0518035E-1,0E0,0E0,0E0,0E0,0E0,0E0,0E0,0E0],"parents":[2147483647,0,0,1,1,2,2,3,3,4,4,5,5,6,6],"right_children":[2,4,6,8,10,12,14,-1,-1,-1,-1,-1,-1,-1,-1],"split_conditions":[5.0787646E-1,3.898899E-1,6.299313E-1,3.8361594E-1,1.9790465E-1,4.6511628E-2,5.811779E-1,7.4649E-2,-1.1661221E-1,-9.316086E-2,1.18674375E-1,-9.696535E-2,8.218294E-2,1.3638365E-1,-3.165856E-2],"split_indices":[642,227,204,135,206,11,632,0,0,0,0,0,0,0,0],"split_type":[0,0,0,0,0,0,0,0,0,0,0,0,0,0,0],"sum_hessian":[3.6208454E1,1.7386803E1,1.8821651E1,5.2440524E0,1.214275E1,1.5772776E1,3.0488749E0,1.5505692E0,3.6934834E0,1.4602298E0,1.068252E1,1.3980698E1,1.7920785E0,2.0331988E0,1.0156761E0],"tree_param":{"num_deleted":"0","num_feature":"809","num_nodes":"15","size_leaf_vector":"1"}},{"base_weights":[-5.3856727E-3,-5.2401906E-1,8.002973E-2,-1.4663437E-1,2.4524843E-2,-3.275889E-1,2.1808419E-1,-1.2550865E-1,3.895614E-2,-1.1849447E-2,1.0546005E-1],"categories":[],"categories_nodes":[],"categories_segments":[],"categories_sizes":[],"default_left":[0,0,0,0,0,0,0,0,0,0,0],"id":37,"left_children":[1,3,5,-1,-1,7,9,-1,-1,-1,-1],"loss_changes":[1.6302335E0,7.935128E-1,1.8525786E0,0E0,0E0,1.439566E0,2.110291E0,0E0,0E0,0E0,0E0],"parents":[2147483647,0,0,1,1,2,2,5,5,6,6],"right_children":[2,4,6,-1,-1,8,10,-1,-1,-1,-1],"split_conditions":[2.880475E-1,5.4541844E-1,3.6801332E-1,-1.4663437E-1,2.4524843E-2,5.1017404E-1,6.623942E-1,-1.2550865E-1,3.895614E-2,-1.1849447E-2,1.0546005E-1],"split_indices":[136,212,394,0,0,86,67,0,0,0,0],"split_type":[0,0,0,0,0,0,0,0,0,0,0],"sum_hessian":[3.4853775E1,4.202385E0,3.065139E1,3.0742319E0,1.1281532E0,7.407414E0,2.3243977E1,4.5775566E0,2.8298578E0,1.2679927E1,1.0564049E1],"tree_param":{"num_deleted":"0","num_feature":"809","num_nodes":"11","size_leaf_vector":"1"}},{"base_weights":[-7.913743E-3,-2.911767E-1,1.5028921E-1,-6.1581403E-1,1.0370529E-1,-6.2001005E-2,5.007773E-1,-1.5447156E-1,1.3581129E-2,-8.652784E-2,9.476005E-2,-5.423327E-2,1.1218869E-1,1.4007019E-1,-5.338331E-2],"categories":[],"categories_nodes":[],"categories_segments":[],"categories_sizes":[],"default_left":[0,0,0,0,0,0,0,0,0,0,0,0,0,0,0],"id":38,"left_children":[1,3,5,7,9,11,13,-1,-1,-1,-1,-1,-1,-1,-1],"loss_changes":[1.604951E0,1.7079266E0,1.7433348E0,8.2121515E-1,1.5234652E0,2.1354985E0,1.5338309E0,0E0,0E0,0E0,0E0,0E0,0E0,0E0,0E0],"parents":[2147483647,0,0,1,1,2,2,3,3,4,4,5,5,6,6],"right_children":[2,4,6,8,10,12,14,-1,-1,-1,-1,-1,-1,-1,-1],"split_conditions":[1.0486891E-1,5.485338E-1,5.635321E-1,6.9259673E-1,4.7410023E-1,6.996693E-1,4.8818177E-1,-1.5447156E-1,1.3581129E-2,-8.652784E-2,9.476005E-2,-5.423327E-2,1.1218869E-1,1.4007019E-1,-5.338331E-2],"split_indices":[0,683,459,69,770,655,355,0,0,0,0,0,0,0,0],"split_type":[0,0,0,0,0,0,0,0,0,0,0,0,0,0,0],"sum_hessian":[3.383786E1,1.1824866E1,2.2012993E1,6.182593E0,5.642274E0,1.4221904E1,7.7910895E0,4.925267E0,1.2573255E0,2.234714E0,3.4075599E0,1.1069734E1,3.15217E0,6.253197E0,1.5378925E0],"tree_param":{"num_deleted":"0","num_feature":"809","num_nodes":"15","size_leaf_vector":"1"}},{"base_weights":[-5.974076E-3,4.857322E-1,-9.593801E-2,1.377116E-1,-2.5573893E-2,1.7373817E-1,-3.0536017E-1,-2.2725819E-2,1.3230866E-1,-1.0391003E-1,2.3782544E-2],"categories":[],"categories_nodes":[],"categories_segments":[],"categories_sizes":[],"default_left":[0,0,0,0,0,0,0,0,0,0,0],"id":39,"left_children":[1,3,5,-1,-1,7,9,-1,-1,-1,-1],"loss_changes":[1.5240501E0,7.5146747E-1,1.6947441E0,0E0,0E0,1.9456964E0,1.581659E0,0E0,0E0,0E0,0E0],"parents":[2147483647,0,0,1,1,2,2,5,5,6,6],"right_children":[2,4,6,-1,-1,8,10,-1,-1,-1,-1],"split_conditions":[1.4688228E-1,5.1332474E-1,5.739235E-1,1.377116E-1,-2.5573893E-2,5.804606E-1,4.8384768E-1,-2.2725819E-2,1.3230866E-1,-1.0391003E-1,2.3782544E-2],"split_indices":[92,62,613,0,0,354,509,0,0,0,0],"split_type":[0,0,0,0,0,0,0,0,0,0,0],"sum_hessian":[3.2399395E1,4.330648E0,2.8068748E1,3.162971E0,1.1676769E0,1.2343816E1,1.5724932E1,8.250491E0,4.093325E0,1.0300341E1,5.424591E0],"tree_param":{"num_deleted":"0","num_feature":"809","num_nodes":"11","size_leaf_vector":"1"}},{"base_weights":[2.2826646E-4,2.2347333E-1,-1.9021939E-1,-1.8969806E-1,4.8472056E-1,1.4966497E-1,-4.502334E-1,-8.96333E-2,5.6947198E-2,1.27083E-1,-4.7809232E-2,-1.005218E-1,7.8183874E-2,-1.2349724E-1,6.1403822E-2],"categories":[],"categories_nodes":[],"categories_segments":[],"categories_sizes":[],"default_left":[0,0,0,0,0,0,0,0,0,0,0,0,0,0,0],"id":40,"left_children":[1,3,5,7,9,11,13,-1,-1,-1,-1,-1,-1,-1,-1],"loss_changes":[1.4286373E0,1.7616218E0,1.6699355E0,9.505188E-1,1.2161555E0,1.5514091E0,1.5224004E0,0E0,0E0,0E0,0E0,0E0,0E0,0E0,0E0],"parents":[2147483647,0,0,1,1,2,2,3,3,4,4,5,5,6,6],"right_children":[2,4,6,8,10,12,14,-1,-1,-1,-1,-1,-1,-1,-1],"split_conditions":[4.5601594E-1,4.0060616E-1,3.9554197E-1,1.8181819E-1,6.4188105E-1,4.7729716E-1,6.0767794E-1,-8.96333E-2,5.6947198E-2,1.27083E-1,-4.7809232E-2,-1.005218E-1,7.8183874E-2,-1.2349724E-1,6.1403822E-2],"split_indices":[258,470,417,1,408,674,640,0,0,0,0,0,0,0,0],"split_type":[0,0,0,0,0,0,0,0,0,0,0,0,0,0,0],"sum_hessian":[3.160213E1,1.4468531E1,1.71336E1,5.7107153E0,8.757815E0,7.610164E0,9.523436E0,3.732591E0,1.9781241E0,7.3496313E0,1.4081846E0,1.7622619E0,5.847903E0,7.951725E0,1.5717103E0],"tree_param":{"num_deleted":"0","num_feature":"809","num_nodes":"15","size_leaf_vector":"1"}},{"base_weights":[-7.054751E-4,1.6825898E-1,-2.7405012E-1,-2.4131426E-1,3.4095946E-1,-4.4295955E-1,8.4817566E-2,8.279729E-2,-9.370275E-2,1.00418165E-1,-2.7298514E-2,3.1160533E-2,-1.2873098E-1],"categories":[],"categories_nodes":[],"categories_segments":[],"categories_sizes":[],"default_left":[0,0,0,0,0,0,0,0,0,0,0,0,0],"id":41,"left_children":[1,3,5,7,9,11,-1,-1,-1,-1,-1,-1,-1],"loss_changes":[1.4938136E0,1.4963017E0,1.6447234E0,1.1639059E0,1.1822118E0,1.3544655E0,0E0,0E0,0E0,0E0,0E0,0E0,0E0],"parents":[2147483647,0,0,1,1,2,2,3,3,4,4,5,5],"right_children":[2,4,6,8,10,12,-1,-1,-1,-1,-1,-1,-1],"split_conditions":[4.8668018E-1,5.294701E-1,7.3810136E-1,5.445639E-1,4.1951844E-1,4.4310483E-1,8.4817566E-2,8.279729E-2,-9.370275E-2,1.00418165E-1,-2.7298514E-2,3.1160533E-2,-1.2873098E-1],"split_indices":[599,393,515,526,224,172,0,0,0,0,0,0,0],"split_type":[0,0,0,0,0,0,0,0,0,0,0,0,0],"sum_hessian":[3.0345367E1,1.8990858E1,1.1354509E1,5.514788E0,1.3476069E1,9.436845E0,1.9176639E0,1.2081243E0,4.306664E0,1.0037119E1,3.4389498E0,2.4251735E0,7.0116715E0],"tree_param":{"num_deleted":"0","num_feature":"809","num_nodes":"13","size_leaf_vector":"1"}},{"base_weights":[9.793466E-4,-4.000286E-1,1.05138935E-1,-6.378999E-1,3.0163685E-2,2.8478354E-1,-2.0932043E-1,-1.5217063E-1,-2.1023815E-2,-4.4081885E-2,1.0332813E-1,-9.460114E-2,6.303539E-2],"categories":[],"categories_nodes":[],"categories_segments":[],"categories_sizes":[],"default_left":[0,0,0,0,0,0,0,0,0,0,0,0,0],"id":42,"left_children":[1,3,5,7,-1,9,11,-1,-1,-1,-1,-1,-1],"loss_changes":[1.3054351E0,9.406575E-1,1.4607104E0,2.2739422E-1,0E0,2.0123963E0,1.475933E0,0E0,0E0,0E0,0E0,0E0,0E0],"parents":[2147483647,0,0,1,1,2,2,3,3,5,5,6,6],"right_children":[2,4,6,8,-1,10,12,-1,-1,-1,-1,-1,-1],"split_conditions":[5.2375233E-1,6.38302E-1,4.5342356E-1,6.795331E-1,3.0163685E-2,3.5757616E-1,4.8487002E-1,-1.5217063E-1,-2.1023815E-2,-4.4081885E-2,1.0332813E-1,-9.460114E-2,6.303539E-2],"split_indices":[435,433,407,444,0,125,563,0,0,0,0,0,0],"split_type":[0,0,0,0,0,0,0,0,0,0,0,0,0],"sum_hessian":[2.9246876E1,5.444676E0,2.38022E1,3.6922317E0,1.7524444E0,1.5208338E1,8.593862E0,2.6521087E0,1.0401231E0,4.799686E0,1.0408652E1,5.784128E0,2.8097332E0],"tree_param":{"num_deleted":"0","num_feature":"809","num_nodes":"13","size_leaf_vector":"1"}},{"base_weights":[-3.2631338E-3,-2.7311578E-1,1.4325863E-1,-5.5885285E-1,1.1290997E-1,3.137587E-1,-3.1621325E-1,-1.4727965E-1,3.476515E-2,8.39469E-2,-8.23833E-2,8.729105E-2,-1.0055375E-1,-1.1785394E-1,1.9566333E-2],"categories":[],"categories_nodes":[],"categories_segments":[],"categories_sizes":[],"default_left":[0,0,0,0,0,0,0,0,0,0,0,0,0,0,0],"id":43,"left_children":[1,3,5,7,9,11,13,-1,-1,-1,-1,-1,-1,-1,-1],"loss_changes":[1.194079E0,1.2348505E0,1.6336703E0,9.439701E-1,1.0344862E0,1.7009611E0,7.132988E-1,0E0,0E0,0E0,0E0,0E0,0E0,0E0,0E0],"parents":[2147483647,0,0,1,1,2,2,3,3,4,4,5,5,6,6],"right_children":[2,4,6,8,10,12,14,-1,-1,-1,-1,-1,-1,-1,-1],"split_conditions":[5.499061E-1,4.636857E-1,5.958204E-1,7.148831E-1,4.2165354E-1,6.2892836E-1,4.3486142E-1,-1.4727965E-1,3.476515E-2,8.39469E-2,-8.23833E-2,8.729105E-2,-1.0055375E-1,-1.1785394E-1,1.9566333E-2],"split_indices":[155,238,242,508,126,192,470,0,0,0,0,0,0,0,0],"split_type":[0,0,0,0,0,0,0,0,0,0,0,0,0,0,0],"sum_hessian":[2.8210258E1,9.623125E0,1.8587133E1,5.272616E0,4.3505096E0,1.3787882E1,4.799252E0,4.24007E0,1.032546E0,2.8718233E0,1.4786863E0,1.2391354E1,1.3965285E0,2.6369927E0,2.1622596E0],"tree_param":{"num_deleted":"0","num_feature":"809","num_nodes":"15","size_leaf_vector":"1"}},{"base_weights":[-1.1309531E-2,8.130557E-2,-4.3200678E-1,-1.00232996E-1,4.0241003E-1,-6.245073E-1,2.0285897E-2,-7.037687E-2,5.3060044E-2,-6.307223E-2,1.0758183E-1,-3.429481E-2,-1.4492832E-1],"categories":[],"categories_nodes":[],"categories_segments":[],"categories_sizes":[],"default_left":[0,0,0,0,0,0,0,0,0,0,0,0,0],"id":44,"left_children":[1,3,5,7,9,11,-1,-1,-1,-1,-1,-1,-1],"loss_changes":[1.1290736E0,1.4307652E0,5.9979624E-1,1.568672E0,1.0268791E0,5.6227207E-2,0E0,0E0,0E0,0E0,0E0,0E0,0E0],"parents":[2147483647,0,0,1,1,2,2,3,3,4,4,5,5],"right_children":[2,4,6,8,10,12,-1,-1,-1,-1,-1,-1,-1],"split_conditions":[5.4214436E-1,5.580843E-1,5.97585E-1,6.514598E-1,3.1564224E-1,3.6356658E-1,2.0285897E-2,-7.037687E-2,5.3060044E-2,-6.307223E-2,1.0758183E-1,-3.429481E-2,-1.4492832E-1],"split_indices":[52,377,129,597,43,80,0,0,0,0,0,0,0],"split_type":[0,0,0,0,0,0,0,0,0,0,0,0,0],"sum_hessian":[2.7076675E1,2.2852507E1,4.2241673E0,1.5038333E1,7.8141737E0,2.9785693E0,1.2455982E0,8.928705E0,6.109628E0,1.0300977E0,6.784076E0,1.0301857E0,1.9483836E0],"tree_param":{"num_deleted":"0","num_feature":"809","num_nodes":"13","size_leaf_vector":"1"}},{"base_weights":[-1.4085824E-2,-1.9108985E-1,2.0419675E-1,2.3936541E-1,-4.0105256E-1,4.67118E-1,-2.0026429E-1,1.0406174E-1,-7.55382E-2,3.903583E-2,-1.1139854E-1,1.3186991E-1,-6.989946E-2,-8.810332E-2,7.362391E-2],"categories":[],"categories_nodes":[],"categories_segments":[],"categories_sizes":[],"default_left":[0,0,0,0,0,0,0,0,0,0,0,0,0,0,0],"id":45,"left_children":[1,3,5,7,9,11,13,-1,-1,-1,-1,-1,-1,-1,-1],"loss_changes":[1.0934403E0,1.5047228E0,1.4444809E0,1.1909654E0,1.1175419E0,1.4861279E0,9.411682E-1,0E0,0E0,0E0,0E0,0E0,0E0,0E0,0E0],"parents":[2147483647,0,0,1,1,2,2,3,3,4,4,5,5,6,6],"right_children":[2,4,6,8,10,12,14,-1,-1,-1,-1,-1,-1,-1,-1],"split_conditions":[1.9480519E-1,3.2829002E-1,4.628484E-1,4.746009E-1,2.9732075E-1,5.810335E-1,4.5721468E-1,1.0406174E-1,-7.55382E-2,3.903583E-2,-1.1139854E-1,1.3186991E-1,-6.989946E-2,-8.810332E-2,7.362391E-2],"split_indices":[1,392,52,660,330,91,509,0,0,0,0,0,0,0,0],"split_type":[0,0,0,0,0,0,0,0,0,0,0,0,0,0,0],"sum_hessian":[2.6290506E1,1.4586763E1,1.1703744E1,4.736397E0,9.850367E0,6.999064E0,4.7046795E0,3.3623307E0,1.3740664E0,1.9900087E0,7.8603578E0,5.821308E0,1.1777557E0,3.4650085E0,1.2396711E0],"tree_param":{"num_deleted":"0","num_feature":"809","num_nodes":"15","size_leaf_vector":"1"}},{"base_weights":[-1.1004498E-2,1.2404539E-1,-3.014247E-1,2.5510865E-1,-3.3834624E-1,1.5704411E-1,-5.057246E-1,9.660376E-2,-1.9840645E-2,-1.1380281E-1,3.9654527E-2,8.710009E-2,-4.5292344E-2,-1.3663729E-1,1.0800845E-2],"categories":[],"categories_nodes":[],"categories_segments":[],"categories_sizes":[],"default_left":[0,0,0,0,0,0,0,0,0,0,0,0,0,0,0],"id":46,"left_children":[1,3,5,7,9,11,13,-1,-1,-1,-1,-1,-1,-1,-1],"loss_changes":[1.0603704E0,1.208183E0,8.8217103E-1,1.258678E0,6.7208374E-1,4.6223217E-1,6.493193E-1,0E0,0E0,0E0,0E0,0E0,0E0,0E0,0E0],"parents":[2147483647,0,0,1,1,2,2,3,3,4,4,5,5,6,6],"right_children":[2,4,6,8,10,12,14,-1,-1,-1,-1,-1,-1,-1,-1],"split_conditions":[4.355723E-1,7.305931E-1,5.516811E-1,4.8616222E-1,5.009566E-1,5.218148E-1,6.117665E-1,9.660376E-2,-1.9840645E-2,-1.1380281E-1,3.9654527E-2,8.710009E-2,-4.5292344E-2,-1.3663729E-1,1.0800845E-2],"split_indices":[318,436,156,759,315,594,337,0,0,0,0,0,0,0,0],"split_type":[0,0,0,0,0,0,0,0,0,0,0,0,0,0,0],"sum_hessian":[2.5082315E1,1.751189E1,7.5704236E0,1.3993709E1,3.5181825E0,2.4049E0,5.1655235E0,8.294826E0,5.6988826E0,2.418298E0,1.0998844E0,1.3147256E0,1.0901744E0,3.7545714E0,1.4109522E0],"tree_param":{"num_deleted":"0","num_feature":"809","num_nodes":"15","size_leaf_vector":"1"}},{"base_weights":[-1.2588243E-2,-2.8132775E-1,1.332722E-1,1.6827267E-1,-4.6572715E-1,3.054334E-1,-2.1199489E-1,-5.0870378E-2,9.7092226E-2,-1.2496052E-1,2.70949E-2,1.00488305E-1,-4.6301473E-2,-1.11481145E-1,4.8818924E-2],"categories":[],"categories_nodes":[],"categories_segments":[],"categories_sizes":[],"default_left":[0,0,0,0,0,0,0,0,0,0,0,0,0,0,0],"id":47,"left_children":[1,3,5,7,9,11,13,-1,-1,-1,-1,-1,-1,-1,-1],"loss_changes":[1.0271422E0,8.41407E-1,1.0778427E0,5.807915E-1,7.342237E-1,1.3626822E0,1.1224198E0,0E0,0E0,0E0,0E0,0E0,0E0,0E0,0E0],"parents":[2147483647,0,0,1,1,2,2,3,3,4,4,5,5,6,6],"right_children":[2,4,6,8,10,12,14,-1,-1,-1,-1,-1,-1,-1,-1],"split_conditions":[1.0486891E-1,3.5811108E-1,4.076529E-1,4.8220783E-1,6.0767794E-1,5.5949247E-1,6E-2,-5.0870378E-2,9.7092226E-2,-1.2496052E-1,2.70949E-2,1.00488305E-1,-4.6301473E-2,-1.11481145E-1,4.8818924E-2],"split_indices":[0,739,78,85,640,70,27,0,0,0,0,0,0,0,0],"split_type":[0,0,0,0,0,0,0,0,0,0,0,0,0,0,0],"sum_hessian":[2.4247137E1,8.203646E0,1.6043493E1,2.4114735E0,5.792172E0,1.078241E1,5.2610826E0,1.1188341E0,1.2926394E0,4.549213E0,1.2429589E0,7.9351773E0,2.8472326E0,2.867383E0,2.3937E0],"tree_param":{"num_deleted":"0","num_feature":"809","num_nodes":"15","size_leaf_vector":"1"}},{"base_weights":[-1.31616285E-2,2.8113773E-1,-1.4249186E-1,5.775237E-1,-1.1163226E-1,-2.7482867E-1,3.0413073E-1,1.3840203E-1,2.4209121E-2,6.823709E-2,-7.886369E-2,3.9789595E-2,-8.234305E-2,-6.303367E-2,1.1507832E-1],"categories":[],"categories_nodes":[],"categories_segments":[],"categories_sizes":[],"default_left":[0,0,0,0,0,0,0,0,0,0,0,0,0,0,0],"id":48,"left_children":[1,3,5,7,9,11,13,-1,-1,-1,-1,-1,-1,-1,-1],"loss_changes":[9.635415E-1,9.659071E-1,1.1190464E0,1.553402E-1,6.680984E-1,9.924543E-1,9.3380797E-1,0E0,0E0,0E0,0E0,0E0,0E0,0E0,0E0],"parents":[2147483647,0,0,1,1,2,2,3,3,4,4,5,5,6,6],"right_children":[2,4,6,8,10,12,14,-1,-1,-1,-1,-1,-1,-1,-1],"split_conditions":[4.3916118E-1,4.3357286E-1,6.156653E-1,4.236871E-1,4.828833E-1,3.5751197E-1,3.0922914E-1,1.3840203E-1,2.4209121E-2,6.823709E-2,-7.886369E-2,3.9789595E-2,-8.234305E-2,-6.303367E-2,1.1507832E-1],"split_indices":[71,562,489,318,348,314,298,0,0,0,0,0,0,0,0],"split_type":[0,0,0,0,0,0,0,0,0,0,0,0,0,0,0],"sum_hessian":[2.3262688E1,6.743536E0,1.6519152E1,3.57525E0,3.168286E0,1.3039983E1,3.4791694E0,2.445846E0,1.1294037E0,1.138174E0,2.030112E0,2.8214195E0,1.0218563E1,1.0104373E0,2.4687324E0],"tree_param":{"num_deleted":"0","num_feature":"809","num_nodes":"15","size_leaf_vector":"1"}},{"base_weights":[-3.2722403E-3,3.4033912E-1,-1.084752E-1,1.191592E-1,-2.6967151E-2,1.5240502E-2,-5.083436E-1,-6.871335E-2,3.8596265E-2,-1.293804E-1,-5.401231E-3],"categories":[],"categories_nodes":[],"categories_segments":[],"categories_sizes":[],"default_left":[0,0,0,0,0,0,0,0,0,0,0],"id":49,"left_children":[1,3,5,-1,-1,7,9,-1,-1,-1,-1],"loss_changes":[8.8384753E-1,7.7630144E-1,9.326098E-1,0E0,0E0,1.038792E0,2.790867E-1,0E0,0E0,0E0,0E0],"parents":[2147483647,0,0,1,1,2,2,5,5,6,6],"right_children":[2,4,6,-1,-1,8,10,-1,-1,-1,-1],"split_conditions":[1.6249259E-1,5.693156E-1,5.026858E-1,1.191592E-1,-2.6967151E-2,5.0621194E-1,5.274094E-1,-6.871335E-2,3.8596265E-2,-1.293804E-1,-5.401231E-3],"split_indices":[92,732,368,0,0,792,473,0,0,0,0],"split_type":[0,0,0,0,0,0,0,0,0,0,0],"sum_hessian":[2.2428886E1,4.73347E0,1.7695415E1,2.9133759E0,1.820094E0,1.4248839E1,3.4465773E0,4.4111133E0,9.837726E0,2.4091175E0,1.0374597E0],"tree_param":{"num_deleted":"0","num_feature":"809","num_nodes":"11","size_leaf_vector":"1"}},{"base_weights":[-5.904487E-3,-1.0632611E-1,3.3965853E-1,-3.5643643E-1,1.16427116E-1,1.24419585E-1,-2.8442878E-2,2.0852994E-2,-1.0373198E-1,-7.5608246E-2,5.9970804E-2],"categories":[],"categories_nodes":[],"categories_segments":[],"categories_sizes":[],"default_left":[0,0,0,0,0,0,0,0,0,0,0],"id":50,"left_children":[1,3,5,7,9,-1,-1,-1,-1,-1,-1],"loss_changes":[8.289329E-1,1.0701683E0,8.2105756E-1,7.2252166E-1,1.0674874E0,0E0,0E0,0E0,0E0,0E0,0E0],"parents":[2147483647,0,0,1,1,2,2,3,3,4,4],"right_children":[2,4,6,8,10,-1,-1,-1,-1,-1,-1],"split_conditions":[7.097022E-1,4.9166334E-1,5.113752E-1,4.6737635E-1,2.5540233E-1,1.24419585E-1,-2.8442878E-2,2.0852994E-2,-1.0373198E-1,-7.5608246E-2,5.9970804E-2],"split_indices":[555,240,192,663,206,0,0,0,0,0,0],"split_type":[0,0,0,0,0,0,0,0,0,0,0],"sum_hessian":[2.1846476E1,1.7463764E1,4.3827105E0,7.9439974E0,9.519768E0,2.5796845E0,1.8030258E0,2.1618357E0,5.7821617E0,2.2888005E0,7.230967E0],"tree_param":{"num_deleted":"0","num_feature":"809","num_nodes":"11","size_leaf_vector":"1"}},{"base_weights":[-4.863592E-3,1.0002884E-1,-3.493777E-1,-2.0820504E-1,2.7596527E-1,-5.34889E-1,4.6631645E-2,-8.174586E-2,6.1428733E-2,8.799689E-2,-3.367334E-2,-7.998458E-3,-1.34553E-1],"categories":[],"categories_nodes":[],"categories_segments":[],"categories_sizes":[],"default_left":[0,0,0,0,0,0,0,0,0,0,0,0,0],"id":51,"left_children":[1,3,5,7,9,11,-1,-1,-1,-1,-1,-1,-1],"loss_changes":[8.3748484E-1,1.022863E0,7.089268E-1,8.529368E-1,9.3137664E-1,2.7358854E-1,0E0,0E0,0E0,0E0,0E0,0E0,0E0],"parents":[2147483647,0,0,1,1,2,2,3,3,4,4,5,5],"right_children":[2,4,6,8,10,12,-1,-1,-1,-1,-1,-1,-1],"split_conditions":[4.9976572E-1,4.254764E-1,7.21852E-1,6.2087446E-1,5.2563155E-1,3.8494304E-1,4.6631645E-2,-8.174586E-2,6.1428733E-2,8.799689E-2,-3.367334E-2,-7.998458E-3,-1.34553E-1],"split_indices":[200,501,241,76,583,334,0,0,0,0,0,0,0],"split_type":[0,0,0,0,0,0,0,0,0,0,0,0,0],"sum_hessian":[2.1208225E1,1.6802198E1,4.406027E0,6.038888E0,1.0763311E1,3.4038475E0,1.0021791E0,4.496262E0,1.5426261E0,7.8685327E0,2.8947785E0,1.0227643E0,2.3810833E0],"tree_param":{"num_deleted":"0","num_feature":"809","num_nodes":"13","size_leaf_vector":"1"}},{"base_weights":[-7.0991474E-3,-2.6154974E-1,1.2806621E-1,-4.1013363E-1,4.8767243E-2,-2.2672598E-1,2.8505334E-1,2.762259E-2,-1.15693465E-1,2.7669681E-2,-9.616405E-2,-2.8965516E-2,9.5327996E-2],"categories":[],"categories_nodes":[],"categories_segments":[],"categories_sizes":[],"default_left":[0,0,0,0,0,0,0,0,0,0,0,0,0],"id":52,"left_children":[1,3,5,7,-1,9,11,-1,-1,-1,-1,-1,-1],"loss_changes":[7.7525103E-1,6.865318E-1,8.8652575E-1,6.7136776E-1,0E0,5.380796E-1,9.480442E-1,0E0,0E0,0E0,0E0,0E0,0E0],"parents":[2147483647,0,0,1,1,2,2,3,3,5,5,6,6],"right_children":[2,4,6,8,-1,10,12,-1,-1,-1,-1,-1,-1],"split_conditions":[1.0486891E-1,7.5852406E-1,4.9975356E-1,4.0110913E-1,4.8767243E-2,5.055983E-1,4.3236026E-1,2.762259E-2,-1.15693465E-1,2.7669681E-2,-9.616405E-2,-2.8965516E-2,9.5327996E-2],"split_indices":[0,555,171,419,0,111,147,0,0,0,0,0,0],"split_type":[0,0,0,0,0,0,0,0,0,0,0,0,0],"sum_hessian":[2.0567104E1,6.8107476E0,1.3756357E1,5.4089775E0,1.4017698E0,4.0834637E0,9.6728945E0,1.3128102E0,4.0961676E0,1.8627082E0,2.2207553E0,3.057209E0,6.615685E0],"tree_param":{"num_deleted":"0","num_feature":"809","num_nodes":"13","size_leaf_vector":"1"}},{"base_weights":[-8.083286E-3,1.3456845E-1,-2.364529E-1,3.060814E-1,-2.0887722E-1,1.3352323E-1,-4.9411666E-1,1.1093227E-1,-1.4055829E-2,7.105328E-2,-1.0258591E-1,8.166496E-2,-5.0558664E-2,-1.3944027E-1,2.4757457E-3],"categories":[],"categories_nodes":[],"categories_segments":[],"categories_sizes":[],"default_left":[0,0,0,0,0,0,0,0,0,0,0,0,0,0,0],"id":53,"left_children":[1,3,5,7,9,11,13,-1,-1,-1,-1,-1,-1,-1,-1],"loss_changes":[7.112311E-1,8.5763156E-1,8.649559E-1,9.1765827E-1,1.0539538E0,5.520679E-1,5.387013E-1,0E0,0E0,0E0,0E0,0E0,0E0,0E0,0E0],"parents":[2147483647,0,0,1,1,2,2,3,3,4,4,5,5,6,6],"right_children":[2,4,6,8,10,12,14,-1,-1,-1,-1,-1,-1,-1,-1],"split_conditions":[4.8668018E-1,6.2918556E-1,5.102607E-1,5.372683E-1,4.630219E-1,4.6754092E-1,4.698113E-1,1.1093227E-1,-1.4055829E-2,7.105328E-2,-1.0258591E-1,8.166496E-2,-5.0558664E-2,-1.3944027E-1,2.4757457E-3],"split_indices":[599,675,270,679,109,735,285,0,0,0,0,0,0,0,0],"split_type":[0,0,0,0,0,0,0,0,0,0,0,0,0,0,0],"sum_hessian":[1.9855368E1,1.2474117E1,7.38125E0,8.392025E0,4.082092E0,3.2279992E0,4.1532507E0,4.7686567E0,3.6233683E0,1.3706073E0,2.711485E0,1.8529538E0,1.3750454E0,2.6958146E0,1.4574358E0],"tree_param":{"num_deleted":"0","num_feature":"809","num_nodes":"15","size_leaf_vector":"1"}},{"base_weights":[-8.925486E-3,-2.0353013E-1,1.5692918E-1,-4.6236235E-1,7.438292E-2,3.25303E-1,-2.51366E-1,-6.759917E-3,-1.3934302E-1,8.124448E-2,-5.8375925E-2,8.889263E-2,-3.775639E-2,3.4258362E-2,-1.0595985E-1],"categories":[],"categories_nodes":[],"categories_segments":[],"categories_sizes":[],"default_left":[0,0,0,0,0,0,0,0,0,0,0,0,0,0,0],"id":54,"left_children":[1,3,5,7,9,11,13,-1,-1,-1,-1,-1,-1,-1,-1],"loss_changes":[6.7936456E-1,7.296152E-1,8.650688E-1,4.9296963E-1,7.897234E-1,6.047969E-1,5.486398E-1,0E0,0E0,0E0,0E0,0E0,0E0,0E0,0E0],"parents":[2147483647,0,0,1,1,2,2,3,3,4,4,5,5,6,6],"right_children":[2,4,6,8,10,12,14,-1,-1,-1,-1,-1,-1,-1,-1],"split_conditions":[5.192151E-1,6.9757503E-1,4.8168355E-1,5.756463E-1,4.5676583E-1,8.004158E-1,5.305272E-1,-6.759917E-3,-1.3934302E-1,8.124448E-2,-5.8375925E-2,8.889263E-2,-3.775639E-2,3.4258362E-2,-1.0595985E-1],"split_indices":[69,736,629,572,583,365,316,0,0,0,0,0,0,0,0],"split_type":[0,0,0,0,0,0,0,0,0,0,0,0,0,0,0],"sum_hessian":[1.9058958E1,8.664894E0,1.0394064E1,4.142818E0,4.5220766E0,7.503158E0,2.890906E0,1.8690665E0,2.2737515E0,2.315288E0,2.2067883E0,6.2012043E0,1.3019536E0,1.3009236E0,1.5899826E0],"tree_param":{"num_deleted":"0","num_feature":"809","num_nodes":"15","size_leaf_vector":"1"}},{"base_weights":[-1.5266713E-2,-3.362377E-1,8.0887005E-2,-1.2017053E-1,1.5883554E-2,2.4284962E-1,-2.0382518E-1,8.1943065E-2,-3.514943E-2,4.733279E-2,-7.3986E-2],"categories":[],"categories_nodes":[],"categories_segments":[],"categories_sizes":[],"default_left":[0,0,0,0,0,0,0,0,0,0,0],"id":55,"left_children":[1,3,5,-1,-1,7,9,-1,-1,-1,-1],"loss_changes":[6.246766E-1,5.5988586E-1,7.735983E-1,0E0,0E0,8.0300504E-1,5.4392797E-1,0E0,0E0,0E0,0E0],"parents":[2147483647,0,0,1,1,2,2,5,5,6,6],"right_children":[2,4,6,-1,-1,8,10,-1,-1,-1,-1],"split_conditions":[1.2987013E-1,5.522009E-1,5.8857334E-1,-1.2017053E-1,1.5883554E-2,5.301827E-1,4.497495E-1,8.1943065E-2,-3.514943E-2,4.733279E-2,-7.3986E-2],"split_indices":[1,683,56,0,0,500,388,0,0,0,0],"split_type":[0,0,0,0,0,0,0,0,0,0,0],"sum_hessian":[1.835936E1,3.6565485E0,1.470281E1,1.9619656E0,1.6945829E0,9.465347E0,5.237464E0,6.782749E0,2.6825976E0,1.317865E0,3.9195988E0],"tree_param":{"num_deleted":"0","num_feature":"809","num_nodes":"11","size_leaf_vector":"1"}},{"base_weights":[-1.7244626E-2,-4.0512285E-1,6.453393E-2,-5.0847004E-3,-1.14374615E-1,-5.263079E-2,4.3839818E-1,4.5977917E-2,-5.0486058E-2,1.2879981E-1,-1.3424587E-2],"categories":[],"categories_nodes":[],"categories_segments":[],"categories_sizes":[],"default_left":[0,0,0,0,0,0,0,0,0,0,0],"id":56,"left_children":[1,3,5,-1,-1,7,9,-1,-1,-1,-1],"loss_changes":[6.2342095E-1,2.0175064E-1,7.420451E-1,0E0,0E0,8.138553E-1,4.6142435E-1,0E0,0E0,0E0,0E0],"parents":[2147483647,0,0,1,1,2,2,5,5,6,6],"right_children":[2,4,6,-1,-1,8,10,-1,-1,-1,-1],"split_conditions":[3.879531E-1,5.342282E-1,6.856938E-1,-5.0847004E-3,-1.14374615E-1,4.2252675E-1,5.757384E-1,4.5977917E-2,-5.0486058E-2,1.2879981E-1,-1.3424587E-2],"split_indices":[133,642,319,0,0,258,290,0,0,0,0],"split_type":[0,0,0,0,0,0,0,0,0,0,0],"sum_hessian":[1.7829588E1,2.4160914E0,1.5413497E1,1.0889523E0,1.3271393E0,1.2389878E1,3.0236192E0,5.070082E0,7.319796E0,1.9546932E0,1.0689259E0],"tree_param":{"num_deleted":"0","num_feature":"809","num_nodes":"11","size_leaf_vector":"1"}},{"base_weights":[-1.4268232E-2,8.682136E-2,-3.1576124E-1,2.9315832E-1,-1.3926917E-1,2.3101935E-2,-4.8572996E-1,8.561036E-2,-5.349605E-2,4.9814884E-2,-6.967332E-2,-1.2013191E-1,-1.8245414E-2],"categories":[],"categories_nodes":[],"categories_segments":[],"categories_sizes":[],"default_left":[0,0,0,0,0,0,0,0,0,0,0,0,0],"id":57,"left_children":[1,3,5,7,9,-1,11,-1,-1,-1,-1,-1,-1],"loss_changes":[5.878813E-1,7.198803E-1,4.1039792E-1,7.14407E-1,7.058101E-1,0E0,1.1110467E-1,0E0,0E0,0E0,0E0,0E0,0E0],"parents":[2147483647,0,0,1,1,2,2,3,3,4,4,6,6],"right_children":[2,4,6,8,10,-1,12,-1,-1,-1,-1,-1,-1],"split_conditions":[5.9809935E-1,4.6740177E-1,3.5792002E-1,6.783455E-1,3.8852626E-1,2.3101935E-2,4.2209247E-1,8.561036E-2,-5.349605E-2,4.9814884E-2,-6.967332E-2,-1.2013191E-1,-1.8245414E-2],"split_indices":[722,192,262,180,108,0,737,0,0,0,0,0,0],"split_type":[0,0,0,0,0,0,0,0,0,0,0,0,0],"sum_hessian":[1.7389334E1,1.3556061E1,3.833273E0,6.9325595E0,6.623502E0,1.1742332E0,2.6590397E0,5.7786655E0,1.1538938E0,2.2512352E0,4.372267E0,1.6544728E0,1.004567E0],"tree_param":{"num_deleted":"0","num_feature":"809","num_nodes":"13","size_leaf_vector":"1"}},{"base_weights":[-1.7640157E-2,1.521923E-1,-1.9780408E-1,-2.665041E-1,3.1328604E-1,1.8346564E-1,-3.640402E-1,1.0853312E-2,-9.394745E-2,1.0528731E-1,-3.1221276E-2,7.964631E-2,-2.7181705E-2,-9.798079E-2,1.9002104E-2],"categories":[],"categories_nodes":[],"categories_segments":[],"categories_sizes":[],"default_left":[0,0,0,0,0,0,0,0,0,0,0,0,0,0,0],"id":58,"left_children":[1,3,5,7,9,11,13,-1,-1,-1,-1,-1,-1,-1,-1],"loss_changes":[5.770858E-1,7.422898E-1,6.44142E-1,2.3763436E-1,8.338771E-1,2.894374E-1,4.3241942E-1,0E0,0E0,0E0,0E0,0E0,0E0,0E0,0E0],"parents":[2147483647,0,0,1,1,2,2,3,3,4,4,5,5,6,6],"right_children":[2,4,6,8,10,12,14,-1,-1,-1,-1,-1,-1,-1,-1],"split_conditions":[5.849646E-1,2.4615678E-1,4.8354927E-1,5.5026126E-1,5.2934504E-1,4.946471E-1,6.053082E-1,1.0853312E-2,-9.394745E-2,1.0528731E-1,-3.1221276E-2,7.964631E-2,-2.7181705E-2,-9.798079E-2,1.9002104E-2],"split_indices":[699,397,546,71,419,68,204,0,0,0,0,0,0,0,0],"split_type":[0,0,0,0,0,0,0,0,0,0,0,0,0,0,0],"sum_hessian":[1.6876568E1,8.767291E0,8.109276E0,2.2541697E0,6.513121E0,2.4307048E0,5.678571E0,1.1585574E0,1.0956123E0,4.3955708E0,2.1175506E0,1.3057379E0,1.124967E0,4.40389E0,1.2746811E0],"tree_param":{"num_deleted":"0","num_feature":"809","num_nodes":"15","size_leaf_vector":"1"}},{"base_weights":[-1.6488437E-2,6.980508E-2,-3.624892E-1,-1.09037004E-1,2.9773685E-1,1.0000969E-2,-1.08575106E-1,-5.9693992E-2,4.874842E-2,-6.212284E-2,9.781051E-2],"categories":[],"categories_nodes":[],"categories_segments":[],"categories_sizes":[],"default_left":[0,0,0,0,0,0,0,0,0,0,0],"id":59,"left_children":[1,3,5,7,9,-1,-1,-1,-1,-1,-1],"loss_changes":[5.4149276E-1,6.307064E-1,2.95949E-1,6.712211E-1,9.3407685E-1,0E0,0E0,0E0,0E0,0E0,0E0],"parents":[2147483647,0,0,1,1,2,2,3,3,4,4],"right_children":[2,4,6,8,10,-1,-1,-1,-1,-1,-1],"split_conditions":[5.4214436E-1,1.9480519E-1,5.490187E-1,5.7286835E-1,3.9253464E-1,1.0000969E-2,-1.08575106E-1,-5.9693992E-2,4.874842E-2,-6.212284E-2,9.781051E-2],"split_indices":[52,1,299,441,678,0,0,0,0,0,0],"split_type":[0,0,0,0,0,0,0,0,0,0,0],"sum_hessian":[1.6288357E1,1.3675821E1,2.6125348E0,7.955401E0,5.7204204E0,1.0147867E0,1.5977482E0,5.27618E0,2.679221E0,1.2193924E0,4.501028E0],"tree_param":{"num_deleted":"0","num_feature":"809","num_nodes":"11","size_leaf_vector":"1"}},{"base_weights":[-1.7780377E-2,1.9890976E-1,-1.5803008E-1,-4.6839204E-2,3.854953E-1,-2.6933005E-1,6.2086202E-2,-4.0991646E-3,1.1546705E-1,-9.131682E-2,7.452905E-3],"categories":[],"categories_nodes":[],"categories_segments":[],"categories_sizes":[],"default_left":[0,0,0,0,0,0,0,0,0,0,0],"id":60,"left_children":[1,3,5,-1,7,9,-1,-1,-1,-1,-1],"loss_changes":[5.42029E-1,6.5953517E-1,6.444641E-1,0E0,4.2471725E-1,5.4675746E-1,0E0,0E0,0E0,0E0,0E0],"parents":[2147483647,0,0,1,1,2,2,4,4,5,5],"right_children":[2,4,6,-1,8,10,-1,-1,-1,-1,-1],"split_conditions":[4.2349327E-1,5.9861064E-1,6.9800097E-1,-4.6839204E-2,3.838507E-1,5.849749E-1,6.2086202E-2,-4.0991646E-3,1.1546705E-1,-9.131682E-2,7.452905E-3],"split_indices":[351,435,555,0,228,550,0,0,0,0,0],"split_type":[0,0,0,0,0,0,0,0,0,0,0],"sum_hessian":[1.58010235E1,6.044236E0,9.756786E0,1.7430558E0,4.3011804E0,8.227193E0,1.5295942E0,1.6668293E0,2.634351E0,4.803948E0,3.4232447E0],"tree_param":{"num_deleted":"0","num_feature":"809","num_nodes":"11","size_leaf_vector":"1"}},{"base_weights":[-1.1681599E-2,1.636397E-1,-1.7243198E-1,-8.5192494E-2,4.1795495E-1,-3.3589742E-1,2.3312305E-1,4.2818364E-2,-7.346434E-2,-8.896547E-3,1.1494579E-1,4.2558566E-2,-9.363845E-2,8.984937E-2,-1.723149E-2],"categories":[],"categories_nodes":[],"categories_segments":[],"categories_sizes":[],"default_left":[0,0,0,0,0,0,0,0,0,0,0,0,0,0,0],"id":61,"left_children":[1,3,5,7,9,11,13,-1,-1,-1,-1,-1,-1,-1,-1],"loss_changes":[4.8969036E-1,5.6370735E-1,6.768751E-1,5.0494206E-1,3.370511E-1,5.9648985E-1,2.5842273E-1,0E0,0E0,0E0,0E0,0E0,0E0,0E0,0E0],"parents":[2147483647,0,0,1,1,2,2,3,3,4,4,5,5,6,6],"right_children":[2,4,6,8,10,12,14,-1,-1,-1,-1,-1,-1,-1,-1],"split_conditions":[4.5284984E-1,5.192151E-1,6.856938E-1,4.962049E-1,3.1931016E-1,3.6944112E-1,3.9737463E-1,4.2818364E-2,-7.346434E-2,-8.896547E-3,1.1494579E-1,4.2558566E-2,-9.363845E-2,8.984937E-2,-1.723149E-2],"split_indices":[314,69,319,681,359,146,417,0,0,0,0,0,0,0,0],"split_type":[0,0,0,0,0,0,0,0,0,0,0,0,0,0,0],"sum_hessian":[1.5374207E1,7.3452196E0,8.028987E0,4.048762E0,3.2964578E0,5.8448753E0,2.1841116E0,2.0816705E0,1.9670913E0,1.0159535E0,2.2805042E0,1.0172746E0,4.8276005E0,1.0597186E0,1.1243929E0],"tree_param":{"num_deleted":"0","num_feature":"809","num_nodes":"15","size_leaf_vector":"1"}},{"base_weights":[-3.329123E-3,9.170001E-2,-3.0607456E-1,-9.649589E-2,3.6507794E-1,1.5088205E-2,-9.846963E-2,-6.9753915E-2,3.537632E-2,-6.330238E-3,1.0496662E-1],"categories":[],"categories_nodes":[],"categories_segments":[],"categories_sizes":[],"default_left":[0,0,0,0,0,0,0,0,0,0,0],"id":62,"left_children":[1,3,5,7,9,-1,-1,-1,-1,-1,-1],"loss_changes":[4.837862E-1,6.950813E-1,3.2246062E-1,6.4011735E-1,3.6129123E-1,0E0,0E0,0E0,0E0,0E0,0E0],"parents":[2147483647,0,0,1,1,2,2,3,3,4,4],"right_children":[2,4,6,8,10,-1,-1,-1,-1,-1,-1],"split_conditions":[5.545902E-1,5.879036E-1,4.682389E-1,5.470863E-1,3.6934367E-1,1.5088205E-2,-9.846963E-2,-6.9753915E-2,3.537632E-2,-6.330238E-3,1.0496662E-1],"split_indices":[108,792,216,89,509,0,0,0,0,0,0],"split_type":[0,0,0,0,0,0,0,0,0,0,0],"sum_hessian":[1.4840282E1,1.1825475E1,3.0148075E0,7.38713E0,4.438345E0,1.1842626E0,1.8305448E0,3.6984277E0,3.688702E0,1.5043595E0,2.9339855E0],"tree_param":{"num_deleted":"0","num_feature":"809","num_nodes":"11","size_leaf_vector":"1"}},{"base_weights":[-3.8533902E-3,2.9414108E-1,-9.749693E-2,-1.4665945E-2,9.990398E-2,-2.460534E-1,1.8332168E-1,3.234852E-2,-7.484265E-2,-2.4877796E-2,8.941429E-2],"categories":[],"categories_nodes":[],"categories_segments":[],"categories_sizes":[],"default_left":[0,0,0,0,0,0,0,0,0,0,0],"id":63,"left_children":[1,3,5,-1,-1,7,9,-1,-1,-1,-1],"loss_changes":[4.5965374E-1,3.3411875E-1,5.666779E-1,0E0,0E0,5.1018596E-1,4.5318186E-1,0E0,0E0,0E0,0E0],"parents":[2147483647,0,0,1,1,2,2,5,5,6,6],"right_children":[2,4,6,-1,-1,8,10,-1,-1,-1,-1],"split_conditions":[1.6249259E-1,5.4691476E-1,5.3049856E-1,-1.4665945E-2,9.990398E-2,3.2751325E-1,4.1133055E-1,3.234852E-2,-7.484265E-2,-2.4877796E-2,8.941429E-2],"split_indices":[92,688,517,0,0,381,630,0,0,0,0],"split_type":[0,0,0,0,0,0,0,0,0,0,0],"sum_hessian":[1.4444255E1,2.9417818E0,1.1502473E1,1.2852042E0,1.6565776E0,7.60378E0,3.898693E0,1.7555854E0,5.8481946E0,2.0432563E0,1.8554368E0],"tree_param":{"num_deleted":"0","num_feature":"809","num_nodes":"11","size_leaf_vector":"1"}},{"base_weights":[4.270218E-3,-3.0301347E-1,9.3547314E-2,-9.648145E-2,1.3952884E-2,-3.657442E-2,4.1316462E-1,5.9359193E-2,-3.9881423E-2,1.0469587E-1,1.2378837E-2],"categories":[],"categories_nodes":[],"categories_segments":[],"categories_sizes":[],"default_left":[0,0,0,0,0,0,0,0,0,0,0],"id":64,"left_children":[1,3,5,-1,-1,7,9,-1,-1,-1,-1],"loss_changes":[4.418861E-1,2.7637786E-1,5.3267884E-1,0E0,0E0,5.891452E-1,1.10275686E-1,0E0,0E0,0E0,0E0],"parents":[2147483647,0,0,1,1,2,2,5,5,6,6],"right_children":[2,4,6,-1,-1,8,10,-1,-1,-1,-1],"split_conditions":[5.2375233E-1,6.262691E-1,5.3720033E-1,-9.648145E-2,1.3952884E-2,4.897142E-1,5.8454245E-1,5.9359193E-2,-3.9881423E-2,1.0469587E-1,1.2378837E-2],"split_indices":[435,433,48,0,0,365,185,0,0,0,0],"split_type":[0,0,0,0,0,0,0,0,0,0,0],"sum_hessian":[1.4074327E1,2.6295557E0,1.1444772E1,1.5767033E0,1.0528523E0,8.762837E0,2.6819344E0,2.605613E0,6.157224E0,1.6678945E0,1.0140399E0],"tree_param":{"num_deleted":"0","num_feature":"809","num_nodes":"11","size_leaf_vector":"1"}},{"base_weights":[7.310383E-3,1.2109066E-1,-2.4551575E-1,-2.1268705E-1,2.6772094E-1,-4.355892E-1,2.6257401E-2,-8.232757E-2,1.728314E-2,8.292214E-2,-2.1949172E-2,-2.4256987E-2,-1.0394032E-1],"categories":[],"categories_nodes":[],"categories_segments":[],"categories_sizes":[],"default_left":[0,0,0,0,0,0,0,0,0,0,0,0,0],"id":65,"left_children":[1,3,5,7,9,11,-1,-1,-1,-1,-1,-1,-1],"loss_changes":[4.5433223E-1,5.879089E-1,4.0893576E-1,2.6577944E-1,4.8798025E-1,2.9395223E-2,0E0,0E0,0E0,0E0,0E0,0E0,0E0],"parents":[2147483647,0,0,1,1,2,2,3,3,4,4,5,5],"right_children":[2,4,6,8,10,12,-1,-1,-1,-1,-1,-1,-1],"split_conditions":[3.7998453E-1,3.5088333E-1,6.1027277E-1,6.025827E-1,5.3642E-1,3.5564828E-1,2.6257401E-2,-8.232757E-2,1.728314E-2,8.292214E-2,-2.1949172E-2,-2.4256987E-2,-1.0394032E-1],"split_indices":[427,61,555,706,314,671,0,0,0,0,0,0,0],"split_type":[0,0,0,0,0,0,0,0,0,0,0,0,0],"sum_hessian":[1.3760247E1,9.848943E0,3.9113042E0,2.8685963E0,6.9803467E0,2.4961426E0,1.4151616E0,1.4967667E0,1.3718296E0,4.9540815E0,2.026265E0,1.0425116E0,1.453631E0],"tree_param":{"num_deleted":"0","num_feature":"809","num_nodes":"13","size_leaf_vector":"1"}},{"base_weights":[-1.4078355E-3,-2.0769258E-1,1.3254121E-1,3.8538415E-2,-3.6717892E-1,2.9312637E-1,-1.6456844E-1,3.818451E-3,-9.8881766E-2,-3.310951E-2,9.631108E-2,3.3199154E-2,-6.921613E-2],"categories":[],"categories_nodes":[],"categories_segments":[],"categories_sizes":[],"default_left":[0,0,0,0,0,0,0,0,0,0,0,0,0],"id":66,"left_children":[1,3,5,-1,7,9,11,-1,-1,-1,-1,-1,-1],"loss_changes":[4.2506936E-1,4.5732018E-1,4.9355042E-1,0E0,2.3911655E-1,6.3443744E-1,2.9236168E-1,0E0,0E0,0E0,0E0,0E0,0E0],"parents":[2147483647,0,0,1,1,2,2,4,4,5,5,6,6],"right_children":[2,4,6,-1,8,10,12,-1,-1,-1,-1,-1,-1],"split_conditions":[1.6233766E-1,2.8766626E-1,5.470987E-1,3.8538415E-2,3.521323E-1,3.2725814E-1,6.0108685E-1,3.818451E-3,-9.8881766E-2,-3.310951E-2,9.631108E-2,3.3199154E-2,-6.921613E-2],"split_indices":[1,392,799,0,739,799,613,0,0,0,0,0,0],"split_type":[0,0,0,0,0,0,0,0,0,0,0,0,0],"sum_hessian":[1.3387183E1,5.053751E0,8.333431E0,1.3803154E0,3.6734357E0,5.418297E0,2.9151347E0,1.1207542E0,2.5526814E0,1.6131063E0,3.8051906E0,1.0636089E0,1.8515259E0],"tree_param":{"num_deleted":"0","num_feature":"809","num_nodes":"13","size_leaf_vector":"1"}},{"base_weights":[-3.1981042E-3,9.385565E-2,-2.8616762E-1,2.7553317E-1,-1.0872012E-1,-8.8536344E-2,1.3956184E-2,-3.5962258E-2,8.318665E-2,-7.340781E-2,2.8628025E-2],"categories":[],"categories_nodes":[],"categories_segments":[],"categories_sizes":[],"default_left":[0,0,0,0,0,0,0,0,0,0,0],"id":67,"left_children":[1,3,5,7,9,-1,-1,-1,-1,-1,-1],"loss_changes":[4.1048306E-1,4.4047055E-1,2.4339536E-1,4.6881676E-1,4.4230485E-1,0E0,0E0,0E0,0E0,0E0,0E0],"parents":[2147483647,0,0,1,1,2,2,3,3,4,4],"right_children":[2,4,6,8,10,-1,-1,-1,-1,-1,-1],"split_conditions":[5.9809935E-1,4.6740177E-1,5.4556066E-1,5.2373344E-1,4.8920587E-1,-8.8536344E-2,1.3956184E-2,-3.5962258E-2,8.318665E-2,-7.340781E-2,2.8628025E-2],"split_indices":[722,192,89,589,354,0,0,0,0,0,0],"split_type":[0,0,0,0,0,0,0,0,0,0,0],"sum_hessian":[1.2968651E1,1.0154238E1,2.8144128E0,5.1633782E0,4.9908595E0,1.7855992E0,1.0288136E0,1.1507071E0,4.012671E0,2.238077E0,2.7527823E0],"tree_param":{"num_deleted":"0","num_feature":"809","num_nodes":"11","size_leaf_vector":"1"}},{"base_weights":[-7.899995E-3,-7.056349E-2,7.14076E-2,2.0629252E-1,-2.3569722E-1,6.636841E-2,-3.904977E-2,-7.691947E-2,2.2255072E-2],"categories":[],"categories_nodes":[],"categories_segments":[],"categories_sizes":[],"default_left":[0,0,0,0,0,0,0,0,0],"id":68,"left_children":[1,-1,3,5,7,-1,-1,-1,-1],"loss_changes":[3.9836192E-1,0E0,5.4252934E-1,5.093274E-1,2.5490046E-1,0E0,0E0,0E0,0E0],"parents":[2147483647,0,0,2,2,3,3,4,4],"right_children":[2,-1,4,6,8,-1,-1,-1,-1],"split_conditions":[3.9012605E-1,-7.056349E-2,5.449111E-1,5.624117E-1,6.565765E-1,6.636841E-2,-3.904977E-2,-7.691947E-2,2.2255072E-2],"split_indices":[133,0,194,165,156,0,0,0,0],"split_type":[0,0,0,0,0,0,0,0,0],"sum_hessian":[1.2641891E1,1.7186352E0,1.0923256E1,7.817821E0,3.1054347E0,6.0879025E0,1.7299184E0,2.097062E0,1.0083724E0],"tree_param":{"num_deleted":"0","num_feature":"809","num_nodes":"9","size_leaf_vector":"1"}},{"base_weights":[-1.3807144E-2,1.4477487E-1,-1.7949273E-1,2.894774E-1,-4.5593087E-2,1.2025163E-1,-3.3290073E-1,-3.6323406E-2,8.723122E-2,-2.3927199E-2,6.0868777E-2,-9.449806E-2,-5.593983E-4],"categories":[],"categories_nodes":[],"categories_segments":[],"categories_sizes":[],"default_left":[0,0,0,0,0,0,0,0,0,0,0,0,0],"id":69,"left_children":[1,3,5,7,-1,9,11,-1,-1,-1,-1,-1,-1],"loss_changes":[3.7690467E-1,4.6391743E-1,3.6090472E-1,4.768869E-1,0E0,1.7317617E-1,2.2359478E-1,0E0,0E0,0E0,0E0,0E0,0E0],"parents":[2147483647,0,0,1,1,2,2,3,3,5,5,6,6],"right_children":[2,4,6,8,-1,10,12,-1,-1,-1,-1,-1,-1],"split_conditions":[5.849646E-1,6.512156E-1,4.3750116E-1,3.7038705E-1,-4.5593087E-2,1.1111111E-1,4.6282429E-1,-3.6323406E-2,8.723122E-2,-2.3927199E-2,6.0868777E-2,-9.449806E-2,-5.593983E-4],"split_indices":[699,113,292,326,0,3,640,0,0,0,0,0,0],"split_type":[0,0,0,0,0,0,0,0,0,0,0,0,0],"sum_hessian":[1.2355737E1,6.37769E0,5.978047E0,4.755085E0,1.6226046E0,2.0969474E0,3.8810992E0,1.0724508E0,3.6826344E0,1.0625222E0,1.0344253E0,2.4245157E0,1.4565836E0],"tree_param":{"num_deleted":"0","num_feature":"809","num_nodes":"13","size_leaf_vector":"1"}},{"base_weights":[-1.5256181E-2,1.12912655E-1,-2.3360561E-1,2.908992E-1,-1.2562542E-1,-8.8155515E-2,1.7458955E-2,9.0451375E-2,-2.6073275E-2,-6.315816E-2,5.357602E-2],"categories":[],"categories_nodes":[],"categories_segments":[],"categories_sizes":[],"default_left":[0,0,0,0,0,0,0,0,0,0,0],"id":70,"left_children":[1,3,5,7,9,-1,-1,-1,-1,-1,-1],"loss_changes":[3.9087015E-1,4.1360465E-1,3.8040766E-1,4.251836E-1,4.2084035E-1,0E0,0E0,0E0,0E0,0E0,0E0],"parents":[2147483647,0,0,1,1,2,2,3,3,4,4],"right_children":[2,4,6,8,10,-1,-1,-1,-1,-1,-1],"split_conditions":[4.5342356E-1,5.0705415E-1,5.105628E-1,7.525258E-1,5.326481E-1,-8.8155515E-2,1.7458955E-2,9.0451375E-2,-2.6073275E-2,-6.315816E-2,5.357602E-2],"split_indices":[407,87,490,365,244,0,0,0,0,0,0],"split_type":[0,0,0,0,0,0,0,0,0,0,0],"sum_hessian":[1.2024314E1,7.881082E0,4.143232E0,4.3876805E0,3.4934013E0,2.290761E0,1.8524708E0,3.1193185E0,1.268362E0,2.4883668E0,1.0050343E0],"tree_param":{"num_deleted":"0","num_feature":"809","num_nodes":"11","size_leaf_vector":"1"}},{"base_weights":[-1.369591E-2,-2.2925219E-1,1.08287856E-1,2.8916424E-2,-3.6949423E-1,2.1879621E-1,-5.809943E-2,-8.654787E-3,-9.6692964E-2,-3.757828E-2,7.662777E-2],"categories":[],"categories_nodes":[],"categories_segments":[],"categories_sizes":[],"default_left":[0,0,0,0,0,0,0,0,0,0,0],"id":71,"left_children":[1,3,5,-1,7,9,-1,-1,-1,-1,-1],"loss_changes":[3.5860035E-1,3.107474E-1,4.507311E-1,0E0,1.2223798E-1,5.6989276E-1,0E0,0E0,0E0,0E0,0E0],"parents":[2147483647,0,0,1,1,2,2,4,4,5,5],"right_children":[2,4,6,-1,8,10,-1,-1,-1,-1,-1],"split_conditions":[5.499061E-1,5.5986536E-1,5.8254063E-1,2.8916424E-2,6.295749E-1,2.5888103E-1,-5.809943E-2,-8.654787E-3,-9.6692964E-2,-3.757828E-2,7.662777E-2],"split_indices":[155,151,685,0,590,554,0,0,0,0,0],"split_type":[0,0,0,0,0,0,0,0,0,0,0],"sum_hessian":[1.1693789E1,3.9082294E0,7.785559E0,1.0577377E0,2.8504918E0,6.449629E0,1.3359305E0,1.0952446E0,1.755247E0,1.8149656E0,4.634663E0],"tree_param":{"num_deleted":"0","num_feature":"809","num_nodes":"11","size_leaf_vector":"1"}},{"base_weights":[-1.8964715E-2,-1.8652327E-1,1.3686897E-1,-3.1973526E-1,2.8554926E-2,2.6308662E-1,-4.318675E-2,9.129213E-4,-9.4653696E-2,9.303536E-2,-1.7558858E-2],"categories":[],"categories_nodes":[],"categories_segments":[],"categories_sizes":[],"default_left":[0,0,0,0,0,0,0,0,0,0,0],"id":72,"left_children":[1,3,5,7,-1,9,-1,-1,-1,-1,-1],"loss_changes":[3.4923726E-1,3.2626885E-1,3.685248E-1,2.4430877E-1,0E0,4.3839043E-1,0E0,0E0,0E0,0E0,0E0],"parents":[2147483647,0,0,1,1,2,2,3,3,5,5],"right_children":[2,4,6,8,-1,10,-1,-1,-1,-1,-1],"split_conditions":[5.053653E-1,6.327314E-1,5.5362284E-1,4.6486613E-1,2.8554926E-2,6.1024183E-1,-4.318675E-2,9.129213E-4,-9.4653696E-2,9.303536E-2,-1.7558858E-2],"split_indices":[375,251,705,739,0,699,0,0,0,0,0],"split_type":[0,0,0,0,0,0,0,0,0,0,0],"sum_hessian":[1.1397255E1,5.397119E0,6.0001354E0,3.863318E0,1.5338013E0,4.6064434E0,1.393692E0,1.5530868E0,2.3102312E0,2.7162669E0,1.8901764E0],"tree_param":{"num_deleted":"0","num_feature":"809","num_nodes":"11","size_leaf_vector":"1"}},{"base_weights":[-1.8187968E-2,-3.0166626E-1,7.874656E-2,-9.487929E-2,3.3789885E-3,2.255442E-1,-1.9933963E-1,6.9612525E-2,-2.9352698E-2,-7.884514E-2,2.329307E-2],"categories":[],"categories_nodes":[],"categories_segments":[],"categories_sizes":[],"default_left":[0,0,0,0,0,0,0,0,0,0,0],"id":73,"left_children":[1,3,5,-1,-1,7,9,-1,-1,-1,-1],"loss_changes":[3.5678864E-1,1.8933687E-1,4.460146E-1,0E0,0E0,3.6578748E-1,2.8749195E-1,0E0,0E0,0E0,0E0],"parents":[2147483647,0,0,1,1,2,2,5,5,6,6],"right_children":[2,4,6,-1,-1,8,10,-1,-1,-1,-1],"split_conditions":[1.2987013E-1,5.522009E-1,6.5582716E-1,-9.487929E-2,3.3789885E-3,3.7998453E-1,5.404572E-1,6.9612525E-2,-2.9352698E-2,-7.884514E-2,2.329307E-2],"split_indices":[1,683,308,0,0,427,244,0,0,0,0],"split_type":[0,0,0,0,0,0,0,0,0,0,0],"sum_hessian":[1.1119636E1,2.2952561E0,8.82438E0,1.1710857E0,1.1241704E0,5.899213E0,2.9251668E0,4.487571E0,1.411642E0,1.6553285E0,1.2698385E0],"tree_param":{"num_deleted":"0","num_feature":"809","num_nodes":"11","size_leaf_vector":"1"}},{"base_weights":[-2.4134314E-2,1.495438E-1,-1.659827E-1,-1.1721797E-1,3.4335726E-1,3.5144683E-2,-3.0103552E-1,4.058483E-2,-7.180047E-2,-2.7852687E-3,9.69513E-2,-8.549302E-2,1.6489428E-2],"categories":[],"categories_nodes":[],"categories_segments":[],"categories_sizes":[],"default_left":[0,0,0,0,0,0,0,0,0,0,0,0,0],"id":74,"left_children":[1,3,5,7,9,-1,11,-1,-1,-1,-1,-1,-1],"loss_changes":[3.163603E-1,3.4250247E-1,3.7537318E-1,3.2097894E-1,1.906684E-1,0E0,2.959348E-1,0E0,0E0,0E0,0E0,0E0,0E0],"parents":[2147483647,0,0,1,1,2,2,3,3,4,4,6,6],"right_children":[2,4,6,8,10,-1,12,-1,-1,-1,-1,-1,-1],"split_conditions":[3.5718134E-1,4.34497E-1,3.913016E-1,3.9480817E-1,4.926443E-1,3.5144683E-2,6.1361444E-1,4.058483E-2,-7.180047E-2,-2.7852687E-3,9.69513E-2,-8.549302E-2,1.6489428E-2],"split_indices":[126,238,351,363,158,0,693,0,0,0,0,0,0],"split_type":[0,0,0,0,0,0,0,0,0,0,0,0,0],"sum_hessian":[1.0833862E1,4.846092E0,5.9877706E0,2.2055752E0,2.6405168E0,1.610866E0,4.3769045E0,1.018165E0,1.1874102E0,1.0043253E0,1.6361914E0,3.205423E0,1.1714815E0],"tree_param":{"num_deleted":"0","num_feature":"809","num_nodes":"13","size_leaf_vector":"1"}},{"base_weights":[-1.737127E-2,1.463148E-1,-1.6200405E-1,3.7074745E-1,-1.0534383E-1,3.098688E-2,-2.9654878E-1,1.3221671E-2,9.693613E-2,3.4405492E-2,-6.4251974E-2,1.5406034E-2,-8.247078E-2],"categories":[],"categories_nodes":[],"categories_segments":[],"categories_sizes":[],"default_left":[0,0,0,0,0,0,0,0,0,0,0,0,0],"id":75,"left_children":[1,3,5,7,9,-1,11,-1,-1,-1,-1,-1,-1],"loss_changes":[2.9652405E-1,3.740586E-1,3.2706845E-1,8.445829E-2,2.6935583E-1,0E0,2.4682567E-1,0E0,0E0,0E0,0E0,0E0,0E0],"parents":[2147483647,0,0,1,1,2,2,3,3,4,4,6,6],"right_children":[2,4,6,8,10,-1,12,-1,-1,-1,-1,-1,-1],"split_conditions":[4.6471006E-1,5.1572037E-1,3.121564E-1,6.889076E-1,4.904929E-1,3.098688E-2,2.899885E-1,1.3221671E-2,9.693613E-2,3.4405492E-2,-6.4251974E-2,1.5406034E-2,-8.247078E-2],"split_indices":[432,799,262,736,598,0,392,0,0,0,0,0,0],"split_type":[0,0,0,0,0,0,0,0,0,0,0,0,0],"sum_hessian":[1.0523873E1,4.9313073E0,5.5925665E0,2.3565173E0,2.5747902E0,1.6214571E0,3.9711092E0,1.0715642E0,1.284953E0,1.2159791E0,1.3588111E0,1.0189335E0,2.9521756E0],"tree_param":{"num_deleted":"0","num_feature":"809","num_nodes":"13","size_leaf_vector":"1"}},{"base_weights":[-1.03665115E-2,7.873064E-2,-5.772319E-2,2.2374237E-1,-1.3949026E-1,6.8050146E-2,-2.8329788E-2,-6.1516244E-2,3.0565813E-2],"categories":[],"categories_nodes":[],"categories_segments":[],"categories_sizes":[],"default_left":[0,0,0,0,0,0,0,0,0],"id":76,"left_children":[1,3,-1,5,7,-1,-1,-1,-1],"loss_changes":[3.0169046E-1,3.2579237E-1,0E0,3.026308E-1,2.5988537E-1,0E0,0E0,0E0,0E0],"parents":[2147483647,0,0,1,1,3,3,4,4],"right_children":[2,4,-1,6,8,-1,-1,-1,-1],"split_conditions":[5.0169265E-1,4.052949E-1,-5.772319E-2,4.6328557E-1,5.7568884E-1,6.8050146E-2,-2.8329788E-2,-6.1516244E-2,3.0565813E-2],"split_indices":[368,318,0,671,459,0,0,0,0],"split_type":[0,0,0,0,0,0,0,0,0],"sum_hessian":[1.0252668E1,8.309095E0,1.9435725E0,4.976692E0,3.3324037E0,3.8256524E0,1.1510398E0,2.0826297E0,1.249774E0],"tree_param":{"num_deleted":"0","num_feature":"809","num_nodes":"9","size_leaf_vector":"1"}},{"base_weights":[-1.2798168E-2,-1.879299E-1,1.2761386E-1,-3.5375547E-1,3.089114E-2,-1.4092885E-1,2.842754E-1,4.196041E-3,-1.04788125E-1,-6.623017E-2,2.2380885E-2,-2.7132198E-2,9.434404E-2],"categories":[],"categories_nodes":[],"categories_segments":[],"categories_sizes":[],"default_left":[0,0,0,0,0,0,0,0,0,0,0,0,0],"id":77,"left_children":[1,3,5,7,-1,9,11,-1,-1,-1,-1,-1,-1],"loss_changes":[2.9583725E-1,3.569069E-1,3.2325482E-1,2.591147E-1,0E0,1.8849069E-1,4.2472342E-1,0E0,0E0,0E0,0E0,0E0,0E0],"parents":[2147483647,0,0,1,1,2,2,3,3,5,5,6,6],"right_children":[2,4,6,8,-1,10,12,-1,-1,-1,-1,-1,-1],"split_conditions":[4.8945394E-1,6.4718616E-1,3.9488444E-1,4.7689593E-1,3.089114E-2,4.9799034E-1,4.3392593E-1,4.196041E-3,-1.04788125E-1,-6.623017E-2,2.2380885E-2,-2.7132198E-2,9.434404E-2],"split_indices":[240,555,700,87,0,354,473,0,0,0,0,0,0],"split_type":[0,0,0,0,0,0,0,0,0,0,0,0,0],"sum_hessian":[1.0055232E1,4.32383E0,5.7314014E0,2.8906236E0,1.4332063E0,2.1486685E0,3.5827332E0,1.1765858E0,1.7140379E0,1.0493891E0,1.0992794E0,1.19093E0,2.391803E0],"tree_param":{"num_deleted":"0","num_feature":"809","num_nodes":"13","size_leaf_vector":"1"}},{"base_weights":[-1.4991499E-2,-2.2057514E-1,1.05928615E-1,-3.5631177E-1,1.9005045E-2,-3.5140954E-2,2.369778E-1,-9.157559E-2,-1.8661316E-2,-1.8441267E-2,7.6510005E-2],"categories":[],"categories_nodes":[],"categories_segments":[],"categories_sizes":[],"default_left":[0,0,0,0,0,0,0,0,0,0,0],"id":78,"left_children":[1,3,5,7,-1,-1,9,-1,-1,-1,-1],"loss_changes":[2.903355E-1,2.1813767E-1,3.1614313E-1,4.325205E-2,0E0,0E0,2.9890618E-1,0E0,0E0,0E0,0E0],"parents":[2147483647,0,0,1,1,2,2,3,3,6,6],"right_children":[2,4,6,8,-1,-1,10,-1,-1,-1,-1],"split_conditions":[1.0486891E-1,5.4477555E-1,4.9975356E-1,5.3112423E-1,1.9005045E-2,-3.5140954E-2,4.3236026E-1,-9.157559E-2,-1.8661316E-2,-1.8441267E-2,7.6510005E-2],"split_indices":[0,143,171,69,0,0,147,0,0,0,0],"split_type":[0,0,0,0,0,0,0,0,0,0,0],"sum_hessian":[9.739296E0,3.301713E0,6.4375825E0,2.2185428E0,1.08317E0,1.9360751E0,4.5015078E0,1.0659518E0,1.1525911E0,1.4926823E0,3.0088253E0],"tree_param":{"num_deleted":"0","num_feature":"809","num_nodes":"11","size_leaf_vector":"1"}},{"base_weights":[-1.8675547E-2,1.008435E-1,-1.9946723E-1,-2.0180589E-1,2.6478302E-1,-3.5347682E-1,3.3100545E-2,-6.718967E-2,6.77596E-3,8.9248665E-2,-1.5753826E-2,-1.20981755E-2,-9.402282E-2],"categories":[],"categories_nodes":[],"categories_segments":[],"categories_sizes":[],"default_left":[0,0,0,0,0,0,0,0,0,0,0,0,0],"id":79,"left_children":[1,3,5,7,9,11,-1,-1,-1,-1,-1,-1,-1],"loss_changes":[2.4771221E-1,4.0100724E-1,3.1300187E-1,1.07139535E-1,3.4538424E-1,9.12717E-2,0E0,0E0,0E0,0E0,0E0,0E0,0E0],"parents":[2147483647,0,0,1,1,2,2,3,3,4,4,5,5],"right_children":[2,4,6,8,10,12,-1,-1,-1,-1,-1,-1,-1],"split_conditions":[5.508675E-1,5.174238E-1,6.710507E-1,4.4543654E-1,4.980242E-1,5.581196E-1,3.3100545E-2,-6.718967E-2,6.77596E-3,8.9248665E-2,-1.5753826E-2,-1.20981755E-2,-9.402282E-2],"split_indices":[71,731,456,280,598,329,0,0,0,0,0,0,0],"split_type":[0,0,0,0,0,0,0,0,0,0,0,0,0],"sum_hessian":[9.532986E0,6.0052223E0,3.5277631E0,2.0288246E0,3.976398E0,2.5030286E0,1.0247344E0,1.0218319E0,1.0069926E0,2.406436E0,1.5699619E0,1.1451367E0,1.3578919E0],"tree_param":{"num_deleted":"0","num_feature":"809","num_nodes":"13","size_leaf_vector":"1"}},{"base_weights":[-2.1136409E-2,8.085149E-2,-2.3164931E-1,2.6686564E-1,-1.23549215E-1,2.3056665E-2,-8.7107904E-2,8.413567E-2,-4.6169623E-3,-5.851185E-2,3.7304994E-2],"categories":[],"categories_nodes":[],"categories_segments":[],"categories_sizes":[],"default_left":[0,0,0,0,0,0,0,0,0,0,0],"id":80,"left_children":[1,3,5,7,9,-1,-1,-1,-1,-1,-1],"loss_changes":[2.3931685E-1,3.2430932E-1,3.0569968E-1,2.0273724E-1,2.8171405E-1,0E0,0E0,0E0,0E0,0E0,0E0],"parents":[2147483647,0,0,1,1,2,2,3,3,4,4],"right_children":[2,4,6,8,10,-1,-1,-1,-1,-1,-1],"split_conditions":[5.5949247E-1,5.938513E-1,4.2764923E-1,6.597127E-1,5.7304424E-1,2.3056665E-2,-8.7107904E-2,8.413567E-2,-4.6169623E-3,-5.851185E-2,3.7304994E-2],"split_indices":[70,572,533,341,133,0,0,0,0,0,0],"split_type":[0,0,0,0,0,0,0,0,0,0,0],"sum_hessian":[9.274339E0,6.662477E0,2.6118615E0,3.3281264E0,3.3343506E0,1.1276581E0,1.4842033E0,1.8799758E0,1.4481505E0,2.1946266E0,1.1397239E0],"tree_param":{"num_deleted":"0","num_feature":"809","num_nodes":"11","size_leaf_vector":"1"}},{"base_weights":[-1.7950678E-2,1.3355301E-1,-1.5732735E-1,-3.8020242E-2,2.873624E-1,7.398833E-2,-3.41561E-1,8.935305E-2,-1.231713E-2,-3.34442E-2,4.9731504E-2,-9.460016E-2,-6.1274315E-3],"categories":[],"categories_nodes":[],"categories_segments":[],"categories_sizes":[],"default_left":[0,0,0,0,0,0,0,0,0,0,0,0,0],"id":81,"left_children":[1,3,5,-1,7,9,11,-1,-1,-1,-1,-1,-1],"loss_changes":[2.3305108E-1,3.210737E-1,2.6772586E-1,0E0,2.514706E-1,1.8248153E-1,1.2221047E-1,0E0,0E0,0E0,0E0,0E0,0E0],"parents":[2147483647,0,0,1,1,2,2,4,4,5,5,6,6],"right_children":[2,4,6,-1,8,10,12,-1,-1,-1,-1,-1,-1],"split_conditions":[5.0787646E-1,3.898899E-1,4.7550428E-1,-3.8020242E-2,4.427607E-1,5.5040985E-1,4.8056597E-1,8.935305E-2,-1.231713E-2,-3.34442E-2,4.9731504E-2,-9.460016E-2,-6.1274315E-3],"split_indices":[642,227,314,0,562,617,288,0,0,0,0,0,0],"split_type":[0,0,0,0,0,0,0,0,0,0,0,0,0],"sum_hessian":[9.041615E0,4.352352E0,4.689262E0,1.3260504E0,3.0263019E0,2.3442826E0,2.3449795E0,1.8849281E0,1.1413738E0,1.0025095E0,1.3417732E0,1.2818255E0,1.0631539E0],"tree_param":{"num_deleted":"0","num_feature":"809","num_nodes":"13","size_leaf_vector":"1"}},{"base_weights":[-1.926553E-2,6.850397E-2,-5.23502E-2,3.037607E-1,-6.651154E-2,8.523055E-2,4.7803144E-3,-4.2005274E-2,4.1326106E-2],"categories":[],"categories_nodes":[],"categories_segments":[],"categories_sizes":[],"default_left":[0,0,0,0,0,0,0,0,0],"id":82,"left_children":[1,3,-1,5,7,-1,-1,-1,-1],"loss_changes":[2.2660267E-1,2.7404153E-1,0E0,9.577975E-2,2.7459484E-1,0E0,0E0,0E0,0E0],"parents":[2147483647,0,0,1,1,3,3,4,4],"right_children":[2,4,-1,6,8,-1,-1,-1,-1],"split_conditions":[5.545902E-1,4.6460176E-1,-5.23502E-2,6.169799E-1,5.5624306E-1,8.523055E-2,4.7803144E-3,-4.2005274E-2,4.1326106E-2],"split_indices":[108,551,0,362,656,0,0,0,0],"split_type":[0,0,0,0,0,0,0,0,0],"sum_hessian":[8.804698E0,6.9915457E0,1.8131521E0,2.093654E0,4.897892E0,1.0929354E0,1.0007185E0,3.3623254E0,1.5355666E0],"tree_param":{"num_deleted":"0","num_feature":"809","num_nodes":"9","size_leaf_vector":"1"}},{"base_weights":[-1.1633603E-2,-5.244639E-2,7.736419E-2,-5.945974E-2,3.1815717E-1,-4.71155E-2,3.4511685E-2,1.3091775E-2,8.244483E-2],"categories":[],"categories_nodes":[],"categories_segments":[],"categories_sizes":[],"default_left":[0,0,0,0,0,0,0,0,0],"id":83,"left_children":[1,-1,3,5,7,-1,-1,-1,-1],"loss_changes":[2.3564063E-1,0E0,2.791135E-1,2.808635E-1,4.4780493E-2,0E0,0E0,0E0,0E0],"parents":[2147483647,0,0,2,2,3,3,4,4],"right_children":[2,-1,4,6,8,-1,-1,-1,-1],"split_conditions":[1.2987013E-1,-5.244639E-2,4.7713566E-1,5.355936E-1,5.763064E-1,-4.71155E-2,3.4511685E-2,1.3091775E-2,8.244483E-2],"split_indices":[1,0,509,473,251,0,0,0,0],"split_type":[0,0,0,0,0,0,0,0,0],"sum_hessian":[8.655929E0,1.7583367E0,6.8975916E0,4.8785553E0,2.0190368E0,2.7646527E0,2.1139023E0,1.0077438E0,1.0112928E0],"tree_param":{"num_deleted":"0","num_feature":"809","num_nodes":"9","size_leaf_vector":"1"}},{"base_weights":[-6.117819E-3,-9.009645E-2,4.6575155E-2,-2.4879883E-1,1.2798677E-1,1.3689026E-2,-7.4323036E-2,-3.8115267E-2,6.310731E-2],"categories":[],"categories_nodes":[],"categories_segments":[],"categories_sizes":[],"default_left":[0,0,